{"learner":{"attributes":{"scikit_learn":"{\"_estimator_type\": \"classifier\"}"},"feature_names":[],"feature_types":[],"gradient_booster":{"model":{"cats":{"enc":[],"feature_segments":[],"sorted_idx":[]},"gbtree_model_param":{"num_parallel_tree":"1","num_trees":"1200"},"iteration_indptr":[0,3,6,9,12,15,18,21,24,27,30,33,36,39,42,45,48,51,54,57,60,63,66,69,72,75,78,81,84,87,90,93,96,99,102,105,108,111,114,117,120,123,126,129,132,135,138,141,144,147,150,153,156,159,162,165,168,171,174,177,180,183,186,189,192,195,198,201,204,207,210,213,216,219,222,225,228,231,234,237,240,243,246,249,252,255,258,261,264,267,270,273,276,279,282,285,288,291,294,297,300,303,306,309,312,315,318,321,324,327,330,333,336,339,342,345,348,351,354,357,360,363,366,369,372,375,378,381,384,387,390,393,396,399,402,405,408,411,414,417,420,423,426,429,432,435,438,441,444,447,450,453,456,459,462,465,468,471,474,477,480,483,486,489,492,495,498,501,504,507,510,513,516,519,522,525,528,531,534,537,540,543,546,549,552,555,558,561,564,567,570,573,576,579,582,585,588,591,594,597,600,603,606,609,612,615,618,621,624,627,630,633,636,639,642,645,648,651,654,657,660,663,666,669,672,675,678,681,684,687,690,693,696,699,702,705,708,711,714,717,720,723,726,729,732,735,738,741,744,747,750,753,756,759,762,765,768,771,774,777,780,783,786,789,792,795,798,801,804,807,810,813,816,819,822,825,828,831,834,837,840,843,846,849,852,855,858,861,864,867,870,873,876,879,882,885,888,891,894,897,900,903,906,909,912,915,918,921,924,927,930,933,936,939,942,945,948,951,954,957,960,963,966,969,972,975,978,981,984,987,990,993,996,999,1002,1005,1008,1011,1014,1017,1020,1023,1026,1029,1032,1035,1038,1041,1044,1047,1050,1053,1056,1059,1062,1065,1068,1071,1074,1077,1080,1083,1086,1089,1092,1095,1098,1101,1104,1107,1110,1113,1116,1119,1122,1125,1128,1131,1134,1137,1140,1143,1146,1149,1152,1155,1158,1161,1164,1167,1170,1173,1176,1179,1182,1185,1188,1191,1194,1197,1200],"tree_info":[0,1,2,0,1,2,0,1,2,0,1,2,0,1,2,0,1,2,0,1,2,0,1,2,0,1,2,0,1,2,0,1,2,0,1,2,0,1,2,0,1,2,0,1,2,0,1,2,0,1,2,0,1,2,0,1,2,0,1,2,0,1,2,0,1,2,0,1,2,0,1,2,0,1,2,0,1,2,0,1,2,0,1,2,0,1,2,0,1,2,0,1,2,0,1,2,0,1,2,0,1,2,0,1,2,0,1,2,0,1,2,0,1,2,0,1,2,0,1,2,0,1,2,0,1,2,0,1,2,0,1,2,0,1,2,0,1,2,0,1,2,0,1,2,0,1,2,0,1,2,0,1,2,0,1,2,0,1,2,0,1,2,0,1,2,0,1,2,0,1,2,0,1,2,0,1,2,0,1,2,0,1,2,0,1,2,0,1,2,0,1,2,0,1,2,0,1,2,0,1,2,0,1,2,0,1,2,0,1,2,0,1,2,0,1,2,0,1,2,0,1,2,0,1,2,0,1,2,0,1,2,0,1,2,0,1,2,0,1,2,0,1,2,0,1,2,0,1,2,0,1,2,0,1,2,0,1,2,0,1,2,0,1,2,0,1,2,0,1,2,0,1,2,0,1,2,0,1,2,0,1,2,0,1,2,0,1,2,0,1,2,0,1,2,0,1,2,0,1,2,0,1,2,0,1,2,0,1,2,0,1,2,0,1,2,0,1,2,0,1,2,0,1,2,0,1,2,0,1,2,0,1,2,0,1,2,0,1,2,0,1,2,0,1,2,0,1,2,0,1,2,0,1,2,0,1,2,0,1,2,0,1,2,0,1,2,0,1,2,0,1,2,0,1,2,0,1,2,0,1,2,0,1,2,0,1,2,0,1,2,0,1,2,0,1,2,0,1,2,0,1,2,0,1,2,0,1,2,0,1,2,0,1,2,0,1,2,0,1,2,0,1,2,0,1,2,0,1,2,0,1,2,0,1,2,0,1,2,0,1,2,0,1,2,0,1,2,0,1,2,0,1,2,0,1,2,0,1,2,0,1,2,0,1,2,0,1,2,0,1,2,0,1,2,0,1,2,0,1,2,0,1,2,0,1,2,0,1,2,0,1,2,0,1,2,0,1,2,0,1,2,0,1,2,0,1,2,0,1,2,0,1,2,0,1,2,0,1,2,0,1,2,0,1,2,0,1,2,0,1,2,0,1,2,0,1,2,0,1,2,0,1,2,0,1,2,0,1,2,0,1,2,0,1,2,0,1,2,0,1,2,0,1,2,0,1,2,0,1,2,0,1,2,0,1,2,0,1,2,0,1,2,0,1,2,0,1,2,0,1,2,0,1,2,0,1,2,0,1,2,0,1,2,0,1,2,0,1,2,0,1,2,0,1,2,0,1,2,0,1,2,0,1,2,0,1,2,0,1,2,0,1,2,0,1,2,0,1,2,0,1,2,0,1,2,0,1,2,0,1,2,0,1,2,0,1,2,0,1,2,0,1,2,0,1,2,0,1,2,0,1,2,0,1,2,0,1,2,0,1,2,0,1,2,0,1,2,0,1,2,0,1,2,0,1,2,0,1,2,0,1,2,0,1,2,0,1,2,0,1,2,0,1,2,0,1,2,0,1,2,0,1,2,0,1,2,0,1,2,0,1,2,0,1,2,0,1,2,0,1,2,0,1,2,0,1,2,0,1,2,0,1,2,0,1,2,0,1,2,0,1,2,0,1,2,0,1,2,0,1,2,0,1,2,0,1,2,0,1,2,0,1,2,0,1,2,0,1,2,0,1,2,0,1,2,0,1,2,0,1,2,0,1,2,0,1,2,0,1,2,0,1,2,0,1,2,0,1,2,0,1,2,0,1,2,0,1,2,0,1,2,0,1,2,0,1,2,0,1,2,0,1,2,0,1,2,0,1,2,0,1,2,0,1,2,0,1,2,0,1,2,0,1,2,0,1,2,0,1,2,0,1,2,0,1,2,0,1,2,0,1,2,0,1,2,0,1,2,0,1,2,0,1,2,0,1,2,0,1,2,0,1,2,0,1,2,0,1,2,0,1,2,0,1,2,0,1,2,0,1,2,0,1,2,0,1,2,0,1,2,0,1,2,0,1,2,0,1,2,0,1,2,0,1,2,0,1,2,0,1,2,0,1,2,0,1,2,0,1,2,0,1,2,0,1,2,0,1,2,0,1,2,0,1,2,0,1,2,0,1,2,0,1,2,0,1,2,0,1,2,0,1,2,0,1,2,0,1,2,0,1,2,0,1,2,0,1,2,0,1,2,0,1,2,0,1,2,0,1,2,0,1,2,0,1,2,0,1,2,0,1,2,0,1,2,0,1,2,0,1,2,0,1,2,0,1,2,0,1,2,0,1,2,0,1,2,0,1,2,0,1,2,0,1,2,0,1,2,0,1,2,0,1,2,0,1,2,0,1,2,0,1,2,0,1,2,0,1,2,0,1,2,0,1,2,0,1,2,0,1,2,0,1,2,0,1,2,0,1,2,0,1,2,0,1,2,0,1,2,0,1,2,0,1,2,0,1,2,0,1,2,0,1,2,0,1,2,0,1,2,0,1,2,0,1,2,0,1,2,0,1,2,0,1,2,0,1,2,0,1,2,0,1,2,0,1,2,0,1,2,0,1,2,0,1,2,0,1,2,0,1,2,0,1,2,0,1,2,0,1,2,0,1,2,0,1,2,0,1,2],"trees":[{"base_weights":[-1.2912229E-1,7.881121E-2,-5.7587963E-1,-6.5919507E-1,1.0325979E0,-3.9830977E-1,-3.608495E-2,-1.0190802E-3,7.044732E-2,-5.809166E-1,9.0184785E-2,-9.014099E-3,-3.295833E-2,2.1547878E-2,-4.487933E-3],"categories":[],"categories_nodes":[],"categories_segments":[],"categories_sizes":[],"default_left":[0,0,0,0,0,0,0,0,0,0,0,0,0,0,0],"id":0,"left_children":[1,-1,3,5,7,9,-1,-1,-1,11,13,-1,-1,-1,-1],"loss_changes":[2.2254416E2,0E0,3.1653725E1,3.1989517E0,4.8145685E0,4.132743E0,0E0,0E0,0E0,8.373709E-1,8.707874E-1,0E0,0E0,0E0,0E0],"parents":[2147483647,0,0,2,2,3,3,4,4,5,5,9,9,10,10],"right_children":[2,-1,4,6,8,10,-1,-1,-1,12,14,-1,-1,-1,-1],"split_conditions":[-5.1478356E-1,7.881121E-2,1.1746831E0,-8.0439955E-2,-5.258776E-1,-2.530735E-1,-3.608495E-2,-1.0190802E-3,7.044732E-2,-8.812544E-1,-9.6698606E-1,-9.014099E-3,-3.295833E-2,2.1547878E-2,-4.487933E-3],"split_indices":[6,0,1,6,3,3,0,0,0,0,1,0,0,0,0],"split_type":[0,0,0,0,0,0,0,0,0,0,0,0,0,0,0],"sum_hessian":[2.900401E2,5.9638424E1,2.3040167E2,2.1967534E2,1.0726335E1,4.41925E1,1.7548283E2,3.0033739E0,7.722961E0,3.2179005E1,1.2013495E1,6.0067477E0,2.6172256E1,3.8614805E0,8.152015E0],"tree_param":{"num_deleted":"0","num_feature":"8","num_nodes":"15","size_leaf_vector":"1"}},{"base_weights":[8.555311E-2,-3.8465187E-2,6.397585E-1,7.355586E-1,-5.752805E-1,5.05502E-1,9.744104E-1,-3.451432E-2,-1.0770874E-2,7.322066E-1,9.596699E-2,1.1511568E0,3.663426E-1,4.1084602E-2,-0E0,1.1172041E-2,-1.5574097E-2,5.915867E-2,2.6287764E-2,-2.9435853E-2,3.0611664E-2],"categories":[],"categories_nodes":[],"categories_segments":[],"categories_sizes":[],"default_left":[0,0,0,0,0,0,0,0,0,0,0,0,0,0,0,0,0,0,0,0,0],"id":1,"left_children":[1,-1,3,5,7,9,11,-1,-1,13,15,17,19,-1,-1,-1,-1,-1,-1,-1,-1],"loss_changes":[1.4759584E2,0E0,2.2439896E1,9.014603E0,3.5247898E-1,8.369408E0,8.552765E0,0E0,0E0,3.8386745E0,1.8275572E0,5.1251984E-1,5.2281885E0,0E0,0E0,0E0,0E0,0E0,0E0,0E0,0E0],"parents":[2147483647,0,0,2,2,3,3,4,4,5,5,6,6,9,9,10,10,11,11,12,12],"right_children":[2,-1,4,6,8,10,12,-1,-1,14,16,18,20,-1,-1,-1,-1,-1,-1,-1,-1],"split_conditions":[-8.0439955E-2,-3.8465187E-2,8.035367E-2,-4.95566E-1,9.232425E-1,7.6473534E-1,4.396322E-1,-3.451432E-2,-1.0770874E-2,9.4978833E-1,-2.0418671E-1,2.3922572E0,6.814374E-1,4.1084602E-2,-0E0,1.1172041E-2,-1.5574097E-2,5.915867E-2,2.6287764E-2,-2.9435853E-2,3.0611664E-2],"split_indices":[6,0,3,3,5,7,5,0,0,4,4,4,5,0,0,0,0,0,0,0,0],"split_type":[0,0,0,0,0,0,0,0,0,0,0,0,0,0,0,0,0,0,0,0,0],"sum_hessian":[3.0952573E2,1.215175E2,1.8800821E2,1.7471007E2,1.3298142E1,9.079421E1,8.391586E1,9.171132E0,4.1270094E0,5.7778133E1,3.3016075E1,6.419793E1,1.9717936E1,5.135834E1,6.4197927E0,2.567917E1,7.336906E0,6.007092E1,4.1270094E0,3.668453E0,1.6049482E1],"tree_param":{"num_deleted":"0","num_feature":"8","num_nodes":"21","size_leaf_vector":"1"}},{"base_weights":[-7.272382E-3,-3.6734484E-2,1.7212671E-1,8.6151624E-1,-3.8148515E-2,1.1209413E0,-2.763998E-2,-1.3548775E-1,6.8600215E-2,1.3012898E0,4.6244222E-1,-2.7221054E-1,5.272349E-1,6.8430476E-2,2.4633534E-2,-1.6237919E-3,4.673898E-2,-1.6699808E-2,4.0637698E-2,4.3141138E-2,-3.755599E-3],"categories":[],"categories_nodes":[],"categories_segments":[],"categories_sizes":[],"default_left":[0,0,0,0,0,0,0,0,0,0,0,0,0,0,0,0,0,0,0,0,0],"id":2,"left_children":[1,-1,3,5,7,9,-1,11,-1,13,15,17,19,-1,-1,-1,-1,-1,-1,-1,-1],"loss_changes":[3.9575108E1,0E0,3.5318153E1,2.1558151E1,2.5720978E1,4.979439E0,0E0,1.6050503E1,0E0,1.1748238E0,2.9477198E0,1.0047573E1,6.265895E0,0E0,0E0,0E0,0E0,0E0,0E0,0E0,0E0],"parents":[2147483647,0,0,2,2,3,3,4,4,5,5,7,7,9,9,10,10,11,11,12,12],"right_children":[2,-1,4,6,8,10,-1,12,-1,14,16,18,20,-1,-1,-1,-1,-1,-1,-1,-1],"split_conditions":[-5.1478356E-1,-3.6734484E-2,-8.0439955E-2,1.1746831E0,9.0697443E-1,8.035367E-2,-2.763998E-2,9.4978833E-1,6.8600215E-2,2.3922572E0,8.534895E-1,-2.2276194E-1,2.3922572E0,6.8430476E-2,2.4633534E-2,-1.6237919E-3,4.673898E-2,-1.6699808E-2,4.0637698E-2,4.3141138E-2,-3.755599E-3],"split_indices":[6,0,6,1,1,3,0,4,0,4,7,3,4,0,0,0,0,0,0,0,0],"split_type":[0,0,0,0,0,0,0,0,0,0,0,0,0,0,0,0,0,0,0,0,0],"sum_hessian":[3.0086206E2,5.901866E1,2.4184338E2,5.591242E1,1.8593097E2,4.748118E1,8.431237E0,1.7483723E2,1.1093734E1,3.6387447E1,1.1093734E1,1.4554979E2,2.9287457E1,3.2837452E1,3.5499947E0,5.7687416E0,5.324992E0,1.384498E2,7.0999894E0,1.8637472E1,1.0649984E1],"tree_param":{"num_deleted":"0","num_feature":"8","num_nodes":"21","size_leaf_vector":"1"}},{"base_weights":[-1.04074046E-1,-4.314883E-1,1.07994E0,-5.151981E-1,6.712993E-2,6.8783194E-2,8.017744E-1,-6.312415E-1,-1.2163862E-1,4.1969728E-1,1.0539579E0,-3.4614775E-2,-4.728481E-1,7.065186E-2,-2.9990578E-2,3.7120085E-3,2.7409071E-2,2.5406435E-2,5.646218E-2,-3.0206835E-2,4.7295056E-3,-2.381414E-3,3.0394632E-2],"categories":[],"categories_nodes":[],"categories_segments":[],"categories_sizes":[],"default_left":[0,0,0,0,0,0,0,0,0,0,0,0,0,0,0,0,0,0,0,0,0,0,0],"id":3,"left_children":[1,3,5,7,-1,-1,9,11,13,15,17,-1,19,21,-1,-1,-1,-1,-1,-1,-1,-1,-1],"loss_changes":[1.1629612E2,3.5504993E1,4.0246506E0,1.0131237E1,0E0,0E0,2.8844223E0,1.2335663E0,4.9417057E0,6.1412835E-1,1.2133789E-1,0E0,3.9722586E0,2.5210865E0,0E0,0E0,0E0,0E0,0E0,0E0,0E0,0E0,0E0],"parents":[2147483647,0,0,1,1,2,2,3,3,6,6,7,7,8,8,9,9,10,10,12,12,13,13],"right_children":[2,4,6,8,-1,-1,10,12,14,16,18,-1,20,22,-1,-1,-1,-1,-1,-1,-1,-1,-1],"split_conditions":[3.8346928E-1,1.69261E0,9.0047777E-1,9.4978833E-1,6.712993E-2,6.8783194E-2,9.043159E-1,8.150061E-1,8.7678456E-1,-7.693936E-1,1.4943885E0,-3.4614775E-2,6.176635E-1,-2.2276194E-1,-2.9990578E-2,3.7120085E-3,2.7409071E-2,2.5406435E-2,5.646218E-2,-3.0206835E-2,4.7295056E-3,-2.381414E-3,3.0394632E-2],"split_indices":[3,2,0,4,0,0,2,7,7,5,0,0,2,3,0,0,0,0,0,0,0,0,0],"split_type":[0,0,0,0,0,0,0,0,0,0,0,0,0,0,0,0,0,0,0,0,0,0,0],"sum_hessian":[2.97958E2,2.339767E2,6.3981323E1,2.2416548E2,9.811221E0,2.8925259E1,3.505607E1,1.7245735E2,5.170812E1,1.5155354E1,1.9900713E1,1.2158819E2,5.0869167E1,3.7336777E1,1.437134E1,4.7473106E0,1.0408043E1,3.5124798E0,1.6388233E1,4.1401604E1,9.467564E0,3.1194202E1,6.1425757E0],"tree_param":{"num_deleted":"0","num_feature":"8","num_nodes":"23","size_leaf_vector":"1"}},{"base_weights":[1.1391983E-1,3.93613E-1,-7.0315194E-1,5.281296E-1,-3.6534652E-2,-4.0098205E-1,-3.619531E-2,7.011742E-1,-1.211751E-1,-2.8981289E-2,-4.181258E-3,4.53789E-1,9.958192E-1,-3.953848E-1,1.6225897E-1,3.6140613E-2,4.342524E-3,6.214728E-2,3.761607E-2,-2.9669324E-2,1.6325655E-3,2.2441488E-2,-1.3481952E-2],"categories":[],"categories_nodes":[],"categories_segments":[],"categories_sizes":[],"default_left":[0,0,0,0,0,0,0,0,0,0,0,0,0,0,0,0,0,0,0,0,0,0,0],"id":4,"left_children":[1,3,5,7,-1,9,-1,11,13,-1,-1,15,17,19,21,-1,-1,-1,-1,-1,-1,-1,-1],"loss_changes":[7.331882E1,3.650287E1,1.1029434E-1,2.4195568E1,0E0,3.2794285E-1,0E0,1.1743019E1,3.6452837E0,0E0,0E0,9.140242E0,3.4533615E0,2.0872445E0,2.9905446E0,0E0,0E0,0E0,0E0,0E0,0E0,0E0,0E0],"parents":[2147483647,0,0,1,1,2,2,3,3,5,5,7,7,8,8,11,11,12,12,13,13,14,14],"right_children":[2,4,6,8,-1,10,-1,12,14,-1,-1,16,18,20,22,-1,-1,-1,-1,-1,-1,-1,-1],"split_conditions":[-2.2276194E-1,9.0697443E-1,8.035367E-2,9.4978833E-1,-3.6534652E-2,-9.6698606E-1,-3.619531E-2,-5.228464E-1,-3.7431976E-1,-2.8981289E-2,-4.181258E-3,-1.1108717E0,-9.6022123E-1,2.3922572E0,-3.440082E-1,3.6140613E-2,4.342524E-3,6.214728E-2,3.761607E-2,-2.9669324E-2,1.6325655E-3,2.2441488E-2,-1.3481952E-2],"split_indices":[3,1,3,4,0,1,0,3,3,0,0,7,7,4,3,0,0,0,0,0,0,0,0],"split_type":[0,0,0,0,0,0,0,0,0,0,0,0,0,0,0,0,0,0,0,0,0,0,0],"sum_hessian":[3.1875314E2,2.3794312E2,8.081004E1,2.1306978E2,2.487333E1,6.8093033E0,7.400074E1,1.6829263E2,4.477714E1,3.626428E0,3.1828754E0,9.304836E1,7.524428E1,2.2737484E1,2.2039656E1,5.297041E1,4.0077953E1,3.5102974E1,4.0141304E1,1.5441742E1,7.2957425E0,1.3364467E1,8.67519E0],"tree_param":{"num_deleted":"0","num_feature":"8","num_nodes":"23","size_leaf_vector":"1"}},{"base_weights":[-1.1321538E-2,-3.6118638E-2,1.6771114E-1,7.706249E-1,-2.808994E-2,1.0312017E0,-2.8325945E-2,-3.0452493E-1,3.9172953E-1,1.1353648E0,6.151911E-1,-3.536607E-1,5.2955415E-2,6.6349053E-1,-2.692123E-1,6.414485E-2,3.738012E-2,1.4902941E-3,4.1590232E-2,-2.1672815E-2,6.1710346E-3,2.4291957E-2,5.446391E-2,-6.7907698E-3,-2.5112564E-2],"categories":[],"categories_nodes":[],"categories_segments":[],"categories_sizes":[],"default_left":[0,0,0,0,0,0,0,0,0,0,0,0,0,0,0,0,0,0,0,0,0,0,0,0,0],"id":5,"left_children":[1,-1,3,5,7,9,-1,11,13,15,17,19,-1,21,23,-1,-1,-1,-1,-1,-1,-1,-1,-1,-1],"loss_changes":[4.0023773E1,0E0,2.9697636E1,2.2104801E1,2.2174767E1,1.3796577E0,0E0,8.032428E0,1.3829194E1,1.1381531E0,1.5104823E0,4.35404E0,0E0,3.4050884E0,5.731375E-1,0E0,0E0,0E0,0E0,0E0,0E0,0E0,0E0,0E0,0E0],"parents":[2147483647,0,0,2,2,3,3,4,4,5,5,7,7,8,8,9,9,10,10,11,11,13,13,14,14],"right_children":[2,-1,4,6,8,10,-1,12,14,16,18,20,-1,22,24,-1,-1,-1,-1,-1,-1,-1,-1,-1,-1],"split_conditions":[-5.1478356E-1,-3.6118638E-2,-8.0439955E-2,1.1746831E0,7.58073E-1,3.0656704E-1,-2.8325945E-2,9.0697443E-1,8.829345E-1,1.6710227E0,9.0047777E-1,9.4978833E-1,5.2955415E-2,-2.0418671E-1,9.1312486E-1,6.414485E-2,3.738012E-2,1.4902941E-3,4.1590232E-2,-2.1672815E-2,6.1710346E-3,2.4291957E-2,5.446391E-2,-6.7907698E-3,-2.5112564E-2],"split_indices":[6,0,6,1,7,0,0,1,7,4,0,4,0,4,7,0,0,0,0,0,0,0,0,0,0],"split_type":[0,0,0,0,0,0,0,0,0,0,0,0,0,0,0,0,0,0,0,0,0,0,0,0,0],"sum_hessian":[3.1201434E2,6.2260902E1,2.4975343E2,6.0631367E1,1.8912207E2,5.09969E1,9.634469E0,1.14343864E2,7.477821E1,3.9209785E1,1.1787114E1,1.1115268E2,3.1911821E0,5.3094616E1,2.1683598E1,2.6544157E1,1.26656275E1,3.6155515E0,8.171562E0,9.548338E1,1.56692915E1,3.9140087E1,1.3954527E1,1.5069424E1,6.614173E0],"tree_param":{"num_deleted":"0","num_feature":"8","num_nodes":"25","size_leaf_vector":"1"}},{"base_weights":[-1.0416876E-1,6.9302924E-2,-5.420649E-1,-6.2253594E-1,9.318578E-1,-6.863179E-1,-1.376732E-1,4.5233737E-3,6.195153E-2,-3.5054993E-2,-4.243983E-1,4.0785867E-1,-3.308958E-2,5.3208014E-3,-3.145985E-2,3.7388254E-2,-5.447491E-3],"categories":[],"categories_nodes":[],"categories_segments":[],"categories_sizes":[],"default_left":[0,0,0,0,0,0,0,0,0,0,0,0,0,0,0,0,0],"id":6,"left_children":[1,-1,3,5,7,9,11,-1,-1,-1,13,15,-1,-1,-1,-1,-1],"loss_changes":[1.9365355E2,0E0,2.7750984E1,6.568962E0,2.9104548E0,3.3459473E-1,7.9557467E0,0E0,0E0,0E0,1.5509884E0,2.5437253E0,0E0,0E0,0E0,0E0,0E0],"parents":[2147483647,0,0,2,2,3,3,4,4,5,5,6,6,10,10,11,11],"right_children":[2,-1,4,6,8,10,12,-1,-1,-1,14,16,-1,-1,-1,-1,-1],"split_conditions":[-5.1478356E-1,6.9302924E-2,1.1746831E0,-2.2276194E-1,-4.95566E-1,2.3922572E0,-8.0439955E-2,4.5233737E-3,6.195153E-2,-3.5054993E-2,-8.0439955E-2,8.7678456E-1,-3.308958E-2,5.3208014E-3,-3.145985E-2,3.7388254E-2,-5.447491E-3],"split_indices":[6,0,1,3,3,4,6,0,0,0,6,7,0,0,0,0,0],"split_type":[0,0,0,0,0,0,0,0,0,0,0,0,0,0,0,0,0],"sum_hessian":[2.9473557E2,6.639378E1,2.283418E2,2.1713258E2,1.1209203E1,1.9134067E2,2.5791927E1,3.4310713E0,7.778132E0,1.7917027E2,1.2170387E1,1.2652999E1,1.3138929E1,3.3861039E0,8.784284E0,7.4799924E0,5.1730065E0],"tree_param":{"num_deleted":"0","num_feature":"8","num_nodes":"17","size_leaf_vector":"1"}},{"base_weights":[7.703557E-2,-3.7264094E-2,5.9943426E-1,7.1498734E-1,-0E0,7.7802986E-1,-2.2211447E-1,4.087832E-1,-3.3702487E-1,5.8318657E-1,9.9448097E-1,5.6532943E-3,-2.976792E-2,4.0166177E-2,-2.9773789E-2,-2.4732707E-2,7.4058743E-3,3.993795E-2,1.446663E-2,5.726042E-2,4.1028257E-2,1.6184937E-2,-1.8355664E-2],"categories":[],"categories_nodes":[],"categories_segments":[],"categories_sizes":[],"default_left":[0,0,0,0,0,0,0,0,0,0,0,0,0,0,0,0,0,0,0,0,0,0,0],"id":7,"left_children":[1,-1,3,5,7,9,11,13,15,17,19,-1,-1,-1,21,-1,-1,-1,-1,-1,-1,-1,-1],"loss_changes":[1.3563684E2,0E0,1.3436844E1,9.799522E0,4.552165E0,5.67778E0,1.4779251E0,2.668302E0,1.5036087E0,4.8999443E0,7.092514E-1,0E0,0E0,0E0,1.061625E0,0E0,0E0,0E0,0E0,0E0,0E0,0E0,0E0],"parents":[2147483647,0,0,2,2,3,3,4,4,5,5,6,6,7,7,8,8,9,9,10,10,14,14],"right_children":[2,-1,4,6,8,10,12,14,16,18,20,-1,-1,-1,22,-1,-1,-1,-1,-1,-1,-1,-1],"split_conditions":[-8.0439955E-2,-3.7264094E-2,9.4978833E-1,-2.2276194E-1,-8.812544E-1,-4.95566E-1,9.8970056E-1,7.1530473E-1,2.3922572E0,-1.1108717E0,-9.6022123E-1,5.6532943E-3,-2.976792E-2,4.0166177E-2,7.692445E-2,-2.4732707E-2,7.4058743E-3,3.993795E-2,1.446663E-2,5.726042E-2,4.1028257E-2,1.6184937E-2,-1.8355664E-2],"split_indices":[6,0,4,3,0,3,3,7,4,7,7,0,0,0,5,0,0,0,0,0,0,0,0],"split_type":[0,0,0,0,0,0,0,0,0,0,0,0,0,0,0,0,0,0,0,0,0,0,0],"sum_hessian":[3.1373868E2,1.2164188E2,1.920968E2,1.610101E2,3.1086708E1,1.511201E2,9.889987E0,1.3835883E1,1.7250824E1,8.171701E1,6.94031E1,5.436792E0,4.453195E0,6.965641E0,6.870242E0,1.3161119E1,4.089705E0,4.5949646E1,3.5767365E1,3.38803E1,3.5522797E1,3.229887E0,3.640355E0],"tree_param":{"num_deleted":"0","num_feature":"8","num_nodes":"23","size_leaf_vector":"1"}},{"base_weights":[-2.5091434E-2,-3.5654787E-2,1.6052352E-1,7.4300754E-1,-2.2427162E-2,9.6498203E-1,-2.6627397E-2,-1.1505823E-1,6.2732205E-2,1.1548651E0,8.907962E-2,-2.6570082E-1,5.0031793E-1,6.324246E-2,3.9755214E-2,-2.7410222E-2,2.3432879E-2,-3.7649793E-3,-2.1984778E-2,5.946997E-3,4.5092165E-2],"categories":[],"categories_nodes":[],"categories_segments":[],"categories_sizes":[],"default_left":[0,0,0,0,0,0,0,0,0,0,0,0,0,0,0,0,0,0,0,0,0],"id":8,"left_children":[1,-1,3,5,7,9,-1,11,-1,13,15,17,19,-1,-1,-1,-1,-1,-1,-1,-1],"loss_changes":[3.9482086E1,0E0,2.5998716E1,1.7056664E1,2.2017317E1,8.09832E0,0E0,1.6265755E1,0E0,4.0909958E-1,2.691144E0,4.579669E0,5.072219E0,0E0,0E0,0E0,0E0,0E0,0E0,0E0,0E0],"parents":[2147483647,0,0,2,2,3,3,4,4,5,5,7,7,9,9,10,10,11,11,12,12],"right_children":[2,-1,4,6,8,10,-1,12,-1,14,16,18,20,-1,-1,-1,-1,-1,-1,-1,-1],"split_conditions":[-5.1478356E-1,-3.5654787E-2,-8.0439955E-2,1.1746831E0,9.0697443E-1,3.8346928E-1,-2.6627397E-2,-2.0418671E-1,6.2732205E-2,1.6710227E0,9.0047777E-1,-5.228464E-1,-8.812544E-1,6.324246E-2,3.9755214E-2,-2.7410222E-2,2.3432879E-2,-3.7649793E-3,-2.1984778E-2,5.946997E-3,4.5092165E-2],"split_indices":[6,0,6,1,1,3,0,4,0,4,0,3,0,0,0,0,0,0,0,0,0],"split_type":[0,0,0,0,0,0,0,0,0,0,0,0,0,0,0,0,0,0,0,0,0],"sum_hessian":[3.0683997E2,6.470394E1,2.4213603E2,5.7273205E1,1.8486284E2,4.905793E1,8.215273E0,1.732822E2,1.158064E1,3.996207E1,9.0958605E0,1.3979216E2,3.3490044E1,2.8465889E1,1.14961815E1,3.131164E0,5.9646964E0,6.770765E1,7.20845E1,1.7968458E1,1.5521584E1],"tree_param":{"num_deleted":"0","num_feature":"8","num_nodes":"21","size_leaf_vector":"1"}},{"base_weights":[-8.745443E-2,6.4896315E-2,-5.4194164E-1,-6.113281E-1,8.321106E-1,-3.11088E-1,-3.462404E-2,1.0336086E-2,5.6650348E-2,-4.7853947E-1,-0E0,-2.6091596E-2,-4.0285774E-3,8.917586E-3,-1.5642412E-2],"categories":[],"categories_nodes":[],"categories_segments":[],"categories_sizes":[],"default_left":[0,0,0,0,0,0,0,0,0,0,0,0,0,0,0],"id":9,"left_children":[1,-1,3,5,7,9,-1,-1,-1,11,13,-1,-1,-1,-1],"loss_changes":[1.8500368E2,0E0,2.158104E1,4.831711E0,1.6998672E0,2.4113517E0,0E0,0E0,0E0,4.2156363E-1,1.0500782E0,0E0,0E0,0E0,0E0],"parents":[2147483647,0,0,2,2,3,3,4,4,5,5,9,9,10,10],"right_children":[2,-1,4,6,8,10,-1,-1,-1,12,14,-1,-1,-1,-1],"split_conditions":[-5.1478356E-1,6.4896315E-2,1.1746831E0,-8.0439955E-2,1.3342946E0,6.814374E-1,-3.462404E-2,1.0336086E-2,5.6650348E-2,1.0489554E0,8.534895E-1,-2.6091596E-2,-4.0285774E-3,8.917586E-3,-1.5642412E-2],"split_indices":[6,0,1,6,2,5,0,0,0,0,7,0,0,0,0],"split_type":[0,0,0,0,0,0,0,0,0,0,0,0,0,0,0],"sum_hessian":[2.9182843E2,7.1575165E1,2.2025327E2,2.1026332E2,9.989945E0,4.6030403E1,1.6423293E2,3.9011273E0,6.088818E0,2.9405035E1,1.6625366E1,2.6012753E1,3.3922822E0,1.0698554E1,5.9268136E0],"tree_param":{"num_deleted":"0","num_feature":"8","num_nodes":"15","size_leaf_vector":"1"}},{"base_weights":[9.229915E-2,-3.655167E-2,5.8056235E-1,6.676989E-1,-3.449173E-2,7.837984E-1,4.504147E-2,4.9492523E-2,5.4449624E-1,-2.6677167E-1,5.350675E-1,1.7679704E-2,5.064888E-2,3.9662775E-3,-2.5685502E-2,4.965622E-2,-1.5061062E-3],"categories":[],"categories_nodes":[],"categories_segments":[],"categories_sizes":[],"default_left":[0,0,0,0,0,0,0,0,0,0,0,0,0,0,0,0,0],"id":10,"left_children":[1,-1,3,5,-1,7,9,-1,11,13,15,-1,-1,-1,-1,-1,-1],"loss_changes":[1.3033246E2,0E0,2.298658E1,1.3691368E1,0E0,7.237015E0,4.93951E0,0E0,6.378172E0,1.7610497E0,3.3874576E0,0E0,0E0,0E0,0E0,0E0,0E0],"parents":[2147483647,0,0,2,2,3,3,5,5,6,6,8,8,9,9,10,10],"right_children":[2,-1,4,6,-1,8,10,-1,12,14,16,-1,-1,-1,-1,-1,-1],"split_conditions":[-8.0439955E-2,-3.655167E-2,9.0697443E-1,9.4978833E-1,-3.449173E-2,-9.6022123E-1,2.3922572E0,4.9492523E-2,8.829345E-1,-8.812544E-1,7.1530473E-1,1.7679704E-2,5.064888E-2,3.9662775E-3,-2.5685502E-2,4.965622E-2,-1.5061062E-3],"split_indices":[6,0,1,4,0,7,4,0,7,0,7,0,0,0,0,0,0],"split_type":[0,0,0,0,0,0,0,0,0,0,0,0,0,0,0,0,0],"sum_hessian":[3.2218933E2,1.1967897E2,2.0251036E2,1.9002939E2,1.2480986E1,1.598118E2,3.0217583E1,8.396183E1,7.584997E1,1.8620512E1,1.159707E1,5.528857E1,2.0561398E1,7.8675404E0,1.0752972E1,6.0851507E0,5.511919E0],"tree_param":{"num_deleted":"0","num_feature":"8","num_nodes":"17","size_leaf_vector":"1"}},{"base_weights":[-2.36021E-2,-3.4995843E-2,1.4392987E-1,6.7193794E-1,-2.6985647E-2,8.883962E-1,-2.6647184E-2,-1.2352738E-1,6.0415752E-2,5.6600984E-2,2.4555124E-1,-1.9458902E-1,9.0472764E-1,-5.0588897E-3,3.1460892E-2,7.883887E-4,-2.0838581E-2,5.3020157E-2,2.2063263E-2],"categories":[],"categories_nodes":[],"categories_segments":[],"categories_sizes":[],"default_left":[0,0,0,0,0,0,0,0,0,0,0,0,0,0,0,0,0,0,0],"id":11,"left_children":[1,-1,3,5,7,9,-1,11,-1,-1,13,15,17,-1,-1,-1,-1,-1,-1],"loss_changes":[3.406974E1,0E0,2.1795506E1,1.5901352E1,2.181511E1,7.489357E0,0E0,1.2550895E1,0E0,0E0,2.1467104E0,7.535566E0,1.825161E-1,0E0,0E0,0E0,0E0,0E0,0E0],"parents":[2147483647,0,0,2,2,3,3,4,4,5,5,7,7,10,10,11,11,12,12],"right_children":[2,-1,4,6,8,10,-1,12,-1,-1,14,16,18,-1,-1,-1,-1,-1,-1],"split_conditions":[-5.1478356E-1,-3.4995843E-2,-8.0439955E-2,1.1746831E0,9.0697443E-1,-2.2276194E-1,-2.6647184E-2,-2.2276194E-1,6.0415752E-2,5.6600984E-2,8.534895E-1,-4.95566E-1,3.8346928E-1,-5.0588897E-3,3.1460892E-2,7.883887E-4,-2.0838581E-2,5.3020157E-2,2.2063263E-2],"split_indices":[6,0,6,1,1,3,0,3,0,0,7,3,3,0,0,0,0,0,0],"split_type":[0,0,0,0,0,0,0,0,0,0,0,0,0,0,0,0,0,0,0],"sum_hessian":[2.983125E2,5.8712673E1,2.3959982E2,5.8018227E1,1.815816E2,4.9475555E1,8.542671E0,1.6932909E2,1.2252523E1,3.5213818E1,1.4261738E1,1.5923268E2,1.00963955E1,7.74134E0,6.520398E0,8.203911E1,7.719357E1,6.4321036E0,3.664292E0],"tree_param":{"num_deleted":"0","num_feature":"8","num_nodes":"19","size_leaf_vector":"1"}},{"base_weights":[-7.84188E-2,6.107054E-2,-5.1391864E-1,-5.865963E-1,8.602733E-1,-2.0007473E-1,-3.4154814E-2,2.1378448E-2,5.366031E-2,-4.889761E-1,3.6011073E-1,-3.0399177E-2,-0E0,3.0091781E-2,1.0630805E-3],"categories":[],"categories_nodes":[],"categories_segments":[],"categories_sizes":[],"default_left":[0,0,0,0,0,0,0,0,0,0,0,0,0,0,0],"id":12,"left_children":[1,-1,3,5,7,9,-1,-1,-1,11,13,-1,-1,-1,-1],"loss_changes":[1.6400003E2,0E0,2.2152885E1,7.4882736E0,4.2648983E-1,7.1375465E0,0E0,0E0,0E0,1.6330667E0,1.1589911E0,0E0,0E0,0E0,0E0],"parents":[2147483647,0,0,2,2,3,3,4,4,5,5,9,9,10,10],"right_children":[2,-1,4,6,8,10,-1,-1,-1,12,14,-1,-1,-1,-1],"split_conditions":[-5.1478356E-1,6.107054E-2,1.1746831E0,-8.0439955E-2,-2.2276194E-1,-2.2276194E-1,-3.4154814E-2,2.1378448E-2,5.366031E-2,1.6710227E0,9.0047777E-1,-3.0399177E-2,-0E0,3.0091781E-2,1.0630805E-3],"split_indices":[6,0,1,6,3,3,0,0,0,4,0,0,0,0,0],"split_type":[0,0,0,0,0,0,0,0,0,0,0,0,0,0,0],"sum_hessian":[2.8773013E2,7.1698494E1,2.1603163E2,2.0579361E2,1.0238021E1,4.193528E1,1.6385832E2,4.5234575E0,5.7145634E0,2.786846E1,1.4066818E1,2.2090996E1,5.777464E0,7.584808E0,6.48201E0],"tree_param":{"num_deleted":"0","num_feature":"8","num_nodes":"15","size_leaf_vector":"1"}},{"base_weights":[7.467226E-2,-3.591215E-2,5.566435E-1,6.20823E-1,-5.051573E-1,3.7424135E-1,8.737146E-1,-3.1652134E-2,-9.627646E-3,4.8356572E-1,-2.4027452E-1,9.9581176E-1,4.650906E-1,3.489688E-2,8.911607E-3,-2.5165886E-2,2.104947E-2,5.1054426E-2,2.6208503E-2,3.9741766E-2,2.426317E-3],"categories":[],"categories_nodes":[],"categories_segments":[],"categories_sizes":[],"default_left":[0,0,0,0,0,0,0,0,0,0,0,0,0,0,0,0,0,0,0,0,0],"id":13,"left_children":[1,-1,3,5,7,9,11,-1,-1,13,15,17,19,-1,-1,-1,-1,-1,-1,-1,-1],"loss_changes":[1.2044308E2,0E0,1.3683994E1,1.1109238E1,2.6073194E-1,6.5777655E0,3.9098434E0,0E0,0E0,5.1433086E0,2.8295462E0,1.2895966E-1,3.023037E0,0E0,0E0,0E0,0E0,0E0,0E0,0E0,0E0],"parents":[2147483647,0,0,2,2,3,3,4,4,5,5,6,6,9,9,10,10,11,11,12,12],"right_children":[2,-1,4,6,8,10,12,-1,-1,14,16,18,20,-1,-1,-1,-1,-1,-1,-1,-1],"split_conditions":[-8.0439955E-2,-3.591215E-2,8.035367E-2,-4.95566E-1,9.232425E-1,9.4978833E-1,4.396322E-1,-3.1652134E-2,-9.627646E-3,-1.1108717E0,2.3922572E0,2.3922572E0,-1.1108717E0,3.489688E-2,8.911607E-3,-2.5165886E-2,2.104947E-2,5.1054426E-2,2.6208503E-2,3.9741766E-2,2.426317E-3],"split_indices":[6,0,3,3,5,4,5,0,0,7,4,4,7,0,0,0,0,0,0,0,0],"split_type":[0,0,0,0,0,0,0,0,0,0,0,0,0,0,0,0,0,0,0,0,0],"sum_hessian":[3.1315826E2,1.1812581E2,1.9503244E2,1.8439627E2,1.0636171E1,9.481869E1,8.957758E1,6.593741E0,4.04243E0,8.081692E1,1.4001767E1,6.767465E1,2.1902937E1,4.6533115E1,3.4283806E1,1.0296155E1,3.7056115E0,6.2925285E1,4.7493615E0,1.1584626E1,1.0318312E1],"tree_param":{"num_deleted":"0","num_feature":"8","num_nodes":"21","size_leaf_vector":"1"}},{"base_weights":[-2.5782017E-2,-3.4452945E-2,1.43081E-1,6.3313663E-1,-1.7751789E-2,8.3840305E-1,-2.6263127E-2,-1.0770683E-1,5.6994863E-2,3.9394978E-1,9.525516E-1,-2.196635E-1,3.7972558E-1,3.0358925E-2,1.1622389E-3,5.0093215E-2,1.4552088E-2,-1.7461901E-3,-1.7209029E-2,2.5167093E-3,4.4516888E-2],"categories":[],"categories_nodes":[],"categories_segments":[],"categories_sizes":[],"default_left":[0,0,0,0,0,0,0,0,0,0,0,0,0,0,0,0,0,0,0,0,0],"id":14,"left_children":[1,-1,3,5,7,9,-1,11,-1,13,15,17,19,-1,-1,-1,-1,-1,-1,-1,-1],"loss_changes":[3.3587685E1,0E0,1.8882137E1,1.4536333E1,1.8815779E1,2.0625305E0,0E0,9.261356E0,0E0,8.907969E-1,8.663101E-1,3.1200895E0,5.1874576E0,0E0,0E0,0E0,0E0,0E0,0E0,0E0,0E0],"parents":[2147483647,0,0,2,2,3,3,4,4,5,5,7,7,9,9,10,10,11,11,12,12],"right_children":[2,-1,4,6,8,10,-1,12,-1,14,16,18,20,-1,-1,-1,-1,-1,-1,-1,-1],"split_conditions":[-5.1478356E-1,-3.4452945E-2,-8.0439955E-2,1.1746831E0,9.0697443E-1,-9.6698606E-1,-2.6263127E-2,9.4978833E-1,5.6994863E-2,-8.155986E-1,1.648658E0,1.196852E0,-7.327767E-1,3.0358925E-2,1.1622389E-3,5.0093215E-2,1.4552088E-2,-1.7461901E-3,-1.7209029E-2,2.5167093E-3,4.4516888E-2],"split_indices":[6,0,6,1,1,1,0,4,0,2,5,6,0,0,0,0,0,0,0,0,0],"split_type":[0,0,0,0,0,0,0,0,0,0,0,0,0,0,0,0,0,0,0,0,0],"sum_hessian":[2.9751447E2,5.986853E1,2.3764594E2,5.814968E1,1.7949625E2,4.9704662E1,8.445017E0,1.6747589E2,1.202036E1,1.1245601E1,3.845906E1,1.3680754E2,3.0668352E1,6.562948E0,4.6826525E0,3.5171494E1,3.2875686E0,5.5922184E1,8.088536E1,1.9429178E1,1.1239173E1],"tree_param":{"num_deleted":"0","num_feature":"8","num_nodes":"21","size_leaf_vector":"1"}},{"base_weights":[-8.683438E-2,5.7745654E-2,-5.0705725E-1,-5.87325E-1,8.56028E-1,-2.7618045E-1,-3.3670526E-2,5.2756768E-2,2.3015456E-2,-5.01555E-1,1.5520692E-1,-3.0564612E-2,-8.942162E-4,-1.475191E-2,1.4954274E-2],"categories":[],"categories_nodes":[],"categories_segments":[],"categories_sizes":[],"default_left":[0,0,0,0,0,0,0,0,0,0,0,0,0,0,0],"id":15,"left_children":[1,-1,3,5,7,9,-1,-1,-1,11,13,-1,-1,-1,-1],"loss_changes":[1.5045505E2,0E0,2.4047363E1,5.1864166E0,3.33354E-1,4.602535E0,0E0,0E0,0E0,1.5568371E0,1.154902E0,0E0,0E0,0E0,0E0],"parents":[2147483647,0,0,2,2,3,3,4,4,5,5,9,9,10,10],"right_children":[2,-1,4,6,8,10,-1,-1,-1,12,14,-1,-1,-1,-1],"split_conditions":[-5.1478356E-1,5.7745654E-2,1.1746831E0,-8.0439955E-2,1.4943885E0,6.814374E-1,-3.3670526E-2,5.2756768E-2,2.3015456E-2,1.6710227E0,-5.100602E-1,-3.0564612E-2,-8.942162E-4,-1.475191E-2,1.4954274E-2],"split_indices":[6,0,1,6,0,5,0,0,0,4,0,0,0,0,0],"split_type":[0,0,0,0,0,0,0,0,0,0,0,0,0,0,0],"sum_hessian":[2.8633453E2,7.189637E1,2.1443817E2,2.031196E2,1.1318581E1,4.51827E1,1.5793689E2,6.253188E0,5.065392E0,2.9723219E1,1.5459483E1,2.3843004E1,5.880214E0,3.3210735E0,1.213841E1],"tree_param":{"num_deleted":"0","num_feature":"8","num_nodes":"15","size_leaf_vector":"1"}},{"base_weights":[6.6892706E-2,-3.5280317E-2,5.322542E-1,6.0930085E-1,-3.3229534E-2,7.6713604E-1,3.295218E-1,8.310498E-1,6.101507E-1,2.0388657E-2,4.555205E-2,2.1491943E-2,4.281619E-2,3.6754064E-2,9.952868E-3,-4.2248545E-3,2.1474816E-2],"categories":[],"categories_nodes":[],"categories_segments":[],"categories_sizes":[],"default_left":[0,0,0,0,0,0,0,0,0,0,0,0,0,0,0,0,0],"id":16,"left_children":[1,-1,3,5,-1,7,9,11,13,15,-1,-1,-1,-1,-1,-1,-1],"loss_changes":[1.090422E2,0E0,1.785725E1,7.518631E0,0E0,4.838028E-1,1.1815978E1,2.8587723E-1,1.6576548E0,1.9784043E0,0E0,0E0,0E0,0E0,0E0,0E0,0E0],"parents":[2147483647,0,0,2,2,3,3,5,5,6,6,7,7,8,8,9,9],"right_children":[2,-1,4,6,-1,8,10,12,14,16,-1,-1,-1,-1,-1,-1,-1],"split_conditions":[-8.0439955E-2,-3.5280317E-2,9.0697443E-1,7.58073E-1,-3.3229534E-2,-2.8734368E-1,8.829345E-1,-1.1782098E0,3.187296E-1,9.0047777E-1,4.555205E-2,2.1491943E-2,4.281619E-2,3.6754064E-2,9.952868E-3,-4.2248545E-3,2.1474816E-2],"split_indices":[6,0,1,7,0,0,7,0,5,0,0,0,0,0,0,0,0],"split_type":[0,0,0,0,0,0,0,0,0,0,0,0,0,0,0,0,0],"sum_hessian":[3.0132712E2,1.130061E2,1.8832101E2,1.7747083E2,1.0850184E1,1.1211991E2,6.535092E1,7.617556E1,3.5944347E1,4.34566E1,2.1894321E1,5.815842E0,7.035972E1,2.6775846E1,9.1685E0,3.5025814E1,8.430784E0],"tree_param":{"num_deleted":"0","num_feature":"8","num_nodes":"17","size_leaf_vector":"1"}},{"base_weights":[9.300307E-3,2.9892743E-1,-1.972383E-1,1.755279E-1,7.022448E-1,-9.529016E-2,-3.3386767E-2,3.1168818E-1,-1.2846288E-1,4.4658285E-2,4.165266E-1,-1.9108902E-1,7.339198E-1,-4.027648E-2,4.727227E-1,-3.6260572E-1,1.9316268E-1,6.988052E-3,2.7674228E-2,-4.665059E-1,-1.9188078E-2,5.009536E-2,-5.622383E-3,3.0100808E-2,-9.236077E-3,2.8294578E-2,-7.951778E-3,-2.0958161E-2,-1.6550919E-3,3.625967E-2,-1.256982E-2,-2.7375707E-2,-5.9714834E-3,3.3440303E-2,-4.355757E-3],"categories":[],"categories_nodes":[],"categories_segments":[],"categories_sizes":[],"default_left":[0,0,0,0,0,0,0,0,0,0,0,0,0,0,0,0,0,0,0,0,0,0,0,0,0,0,0,0,0,0,0,0,0,0,0],"id":17,"left_children":[1,3,5,7,9,11,-1,13,15,-1,17,19,21,23,25,27,29,-1,-1,31,33,-1,-1,-1,-1,-1,-1,-1,-1,-1,-1,-1,-1,-1,-1],"loss_changes":[1.7923178E1,6.0022287E0,8.236195E0,4.0781727E0,1.0639334E0,1.1593812E1,0E0,3.8933463E0,2.3856323E0,0E0,3.6843777E-1,6.133485E0,3.6269064E0,2.1053994E0,2.8764162E0,2.7991962E-1,3.38299E0,0E0,0E0,1.2733164E0,3.8219345E0,0E0,0E0,0E0,0E0,0E0,0E0,0E0,0E0,0E0,0E0,0E0,0E0,0E0,0E0],"parents":[2147483647,0,0,1,1,2,2,3,3,4,4,5,5,7,7,8,8,10,10,11,11,12,12,13,13,14,14,15,15,16,16,19,19,20,20],"right_children":[2,4,6,8,10,12,-1,14,16,-1,18,20,22,24,26,28,30,-1,-1,32,34,-1,-1,-1,-1,-1,-1,-1,-1,-1,-1,-1,-1,-1,-1],"split_conditions":[-4.95566E-1,8.7678456E-1,1.1746831E0,3.187296E-1,-2.7304439E-2,9.0697443E-1,-3.3386767E-2,-5.865007E-1,-2.8734368E-1,4.4658285E-2,-5.561891E-1,6.9508314E-1,6.176635E-1,-1.1739141E0,3.0656704E-1,9.232425E-1,-5.561891E-1,6.988052E-3,2.7674228E-2,1.4068528E0,7.052498E-1,5.009536E-2,-5.622383E-3,3.0100808E-2,-9.236077E-3,2.8294578E-2,-7.951778E-3,-2.0958161E-2,-1.6550919E-3,3.625967E-2,-1.256982E-2,-2.7375707E-2,-5.9714834E-3,3.3440303E-2,-4.355757E-3],"split_indices":[3,7,1,5,2,1,0,3,0,0,3,7,2,2,0,5,3,0,0,5,7,0,0,0,0,0,0,0,0,0,0,0,0,0,0],"split_type":[0,0,0,0,0,0,0,0,0,0,0,0,0,0,0,0,0,0,0,0,0,0,0,0,0,0,0,0,0,0,0,0,0,0,0],"sum_hessian":[2.9746698E2,1.23841736E2,1.7362524E2,9.611685E1,2.7724884E1,1.4386696E2,2.9758278E1,6.659291E1,2.9523943E1,1.5135262E1,1.2589623E1,1.2976529E2,1.4101671E1,2.094451E1,4.56484E1,1.7191828E1,1.2332115E1,5.0781937E0,7.5114293E0,4.898569E1,8.07796E1,1.0660568E1,3.4411027E0,3.1366992E0,1.780781E1,4.0010395E1,5.6380043E0,1.418198E1,3.0098479E0,5.428809E0,6.9033065E0,3.90141E1,9.97159E0,6.331668E0,7.444793E1],"tree_param":{"num_deleted":"0","num_feature":"8","num_nodes":"35","size_leaf_vector":"1"}},{"base_weights":[-8.071845E-2,5.5094957E-2,-5.0783426E-1,-5.791941E-1,7.3445755E-1,-6.310158E-1,-6.122726E-3,-2.3286634E-3,5.1028796E-2,-4.7944668E-1,-3.3191323E-2,5.2813566E-1,-3.0157909E-2,-2.7721165E-2,-5.9452686E-3,5.076492E-2,5.991109E-3],"categories":[],"categories_nodes":[],"categories_segments":[],"categories_sizes":[],"default_left":[0,0,0,0,0,0,0,0,0,0,0,0,0,0,0,0,0],"id":18,"left_children":[1,-1,3,5,7,9,11,-1,-1,13,-1,15,-1,-1,-1,-1,-1],"loss_changes":[1.458951E2,0E0,1.9222866E1,5.911255E0,2.8025794E0,4.8473358E-1,6.0246024E0,0E0,0E0,8.660536E-1,0E0,1.7287526E0,0E0,0E0,0E0,0E0,0E0],"parents":[2147483647,0,0,2,2,3,3,4,4,5,5,6,6,9,9,11,11],"right_children":[2,-1,4,6,8,10,12,-1,-1,14,-1,16,-1,-1,-1,-1,-1],"split_conditions":[-5.1478356E-1,5.5094957E-2,1.1746831E0,3.8346928E-1,-4.95566E-1,-8.0439955E-2,-8.0439955E-2,-2.3286634E-3,5.1028796E-2,-2.530735E-1,-3.3191323E-2,9.0047777E-1,-3.0157909E-2,-2.7721165E-2,-5.9452686E-3,5.076492E-2,5.991109E-3],"split_indices":[6,0,1,3,3,6,6,0,0,3,0,0,0,0,0,0,0],"split_type":[0,0,0,0,0,0,0,0,0,0,0,0,0,0,0,0,0],"sum_hessian":[2.868454E2,7.562831E1,2.1121709E2,2.003243E2,1.0892786E1,1.8345888E2,1.686541E1,3.0512805E0,7.841506E0,3.5967464E1,1.4749142E2,8.873157E0,7.992253E0,2.9100698E1,6.8667665E0,3.2564178E0,5.6167383E0],"tree_param":{"num_deleted":"0","num_feature":"8","num_nodes":"17","size_leaf_vector":"1"}},{"base_weights":[6.0038686E-2,2.7306846E-1,-6.184786E-1,5.225025E-1,4.4864606E-2,-3.3086184E-2,-4.4132835E-1,6.572112E-1,-5.3558398E-2,-1.3891773E-1,6.6670465E-1,-9.483988E-3,-3.079587E-2,4.9311262E-1,8.972106E-1,2.2341888E-1,-3.8200507E-1,-7.5924955E-3,-4.6856216E-1,-0E0,4.8324715E-2,1.36020705E-2,3.5591047E-2,4.896676E-2,2.8111914E-2,-1.4971571E-2,2.191037E-2,-2.1799363E-3,-3.0029586E-2,-8.354579E-3,9.954102E-3,-1.1518614E-2,-3.3770252E-2,1.5069067E-2,-1.2841771E-2],"categories":[],"categories_nodes":[],"categories_segments":[],"categories_sizes":[],"default_left":[0,0,0,0,0,0,0,0,0,0,0,0,0,0,0,0,0,0,0,0,0,0,0,0,0,0,0,0,0,0,0,0,0,0,0],"id":19,"left_children":[1,3,5,7,9,-1,11,13,15,17,19,-1,-1,21,23,25,27,29,31,33,-1,-1,-1,-1,-1,-1,-1,-1,-1,-1,-1,-1,-1,-1,-1],"loss_changes":[4.4638805E1,1.3303904E1,1.6275024E-1,8.789656E0,1.4327302E1,0E0,5.903604E-1,3.003189E0,2.1042075E0,4.1258903E0,5.655554E0,0E0,0E0,2.4409685E0,2.7163887E-1,1.5388246E0,6.940192E-1,2.3452752E0,1.096633E0,8.4960335E-1,0E0,0E0,0E0,0E0,0E0,0E0,0E0,0E0,0E0,0E0,0E0,0E0,0E0,0E0,0E0],"parents":[2147483647,0,0,1,1,2,2,3,3,4,4,6,6,7,7,8,8,9,9,10,10,13,13,14,14,15,15,16,16,17,17,18,18,19,19],"right_children":[2,4,6,8,10,-1,12,14,16,18,20,-1,-1,22,24,26,28,30,32,34,-1,-1,-1,-1,-1,-1,-1,-1,-1,-1,-1,-1,-1,-1,-1],"split_conditions":[-2.2276194E-1,-9.6022123E-1,1.648658E0,9.4978833E-1,8.829345E-1,-3.3086184E-2,6.176635E-1,-4.95566E-1,-7.327767E-1,4.396322E-1,-5.228464E-1,-9.483988E-3,-3.079587E-2,7.692445E-2,4.396322E-1,-5.228464E-1,-5.258776E-1,-4.95566E-1,-6.4627156E-2,8.985888E-1,4.8324715E-2,1.36020705E-2,3.5591047E-2,4.896676E-2,2.8111914E-2,-1.4971571E-2,2.191037E-2,-2.1799363E-3,-3.0029586E-2,-8.354579E-3,9.954102E-3,-1.1518614E-2,-3.3770252E-2,1.5069067E-2,-1.2841771E-2],"split_indices":[3,7,5,4,7,0,2,3,0,5,3,0,0,5,5,3,3,3,0,7,0,0,0,0,0,0,0,0,0,0,0,0,0,0,0],"split_type":[0,0,0,0,0,0,0,0,0,0,0,0,0,0,0,0,0,0,0,0,0,0,0,0,0,0,0,0,0,0,0,0,0,0,0],"sum_hessian":[3.0689478E2,2.3413106E2,7.276372E1,1.1103667E2,1.230944E2,5.5833916E1,1.6929804E1,9.001894E1,2.101772E1,9.548884E1,2.7605555E1,8.023757E0,8.906047E0,5.552517E1,3.4493774E1,1.14105625E1,9.607157E0,6.923363E1,2.6255213E1,8.93918E0,1.8666374E1,2.8956707E1,2.656846E1,2.591747E1,8.576304E0,3.0722554E0,8.338306E0,4.42049E0,5.1866674E0,3.9457817E1,2.9775812E1,1.3410066E1,1.2845148E1,4.147796E0,4.7913847E0],"tree_param":{"num_deleted":"0","num_feature":"8","num_nodes":"35","size_leaf_vector":"1"}},{"base_weights":[1.4377239E-2,2.8805315E-1,-1.8087937E-1,1.676371E-1,6.3993275E-1,-4.3619326E-1,-3.957842E-2,3.985122E-1,-4.8488956E-2,7.517631E-1,-1.4606032E-2,-2.86818E-2,-2.3448555E-1,4.8686054E-2,-1.15288034E-1,-1.2827078E-1,5.1836616E-1,-2.5490621E-2,3.861208E-2,8.500063E-1,1.7245052E-2,-1.576195E-2,-3.0771513E-2,8.472893E-3,-2.7213052E-2,2.8779957E-2,-3.000749E-2,5.2946587E-3,3.390659E-2,1.3411002E-2,-1.6636472E-2,5.5739332E-2,2.6751427E-2,6.7445957E-3,-2.6291067E-2,3.840149E-3,-2.6207093E-2],"categories":[],"categories_nodes":[],"categories_segments":[],"categories_sizes":[],"default_left":[0,0,0,0,0,0,0,0,0,0,0,0,0,0,0,0,0,0,0,0,0,0,0,0,0,0,0,0,0,0,0,0,0,0,0,0,0],"id":20,"left_children":[1,3,5,7,9,11,13,15,17,19,-1,-1,21,-1,23,25,27,-1,29,31,-1,33,-1,35,-1,-1,-1,-1,-1,-1,-1,-1,-1,-1,-1,-1,-1],"loss_changes":[1.6355387E1,5.216589E0,6.3690047E0,4.8743863E0,3.596178E0,1.536376E0,8.937483E0,3.0753102E0,2.0984132E0,7.4276733E-1,0E0,0E0,2.2262232E0,0E0,5.848538E0,3.4585323E0,2.3982449E0,0E0,3.772778E0,1.1070004E0,0E0,1.5486168E0,0E0,3.105336E0,0E0,0E0,0E0,0E0,0E0,0E0,0E0,0E0,0E0,0E0,0E0,0E0,0E0],"parents":[2147483647,0,0,1,1,2,2,3,3,4,4,5,5,6,6,7,7,8,8,9,9,12,12,14,14,15,15,16,16,18,18,19,19,21,21,23,23],"right_children":[2,4,6,8,10,12,14,16,18,20,-1,-1,22,-1,24,26,28,-1,30,32,-1,34,-1,36,-1,-1,-1,-1,-1,-1,-1,-1,-1,-1,-1,-1,-1],"split_conditions":[-4.95566E-1,8.7678456E-1,6.9508314E-1,7.692445E-2,9.1312486E-1,4.396322E-1,7.052498E-1,-6.168123E-1,-1.0297321E0,8.829345E-1,-1.4606032E-2,-2.86818E-2,-9.8967545E-2,4.8686054E-2,1.3342946E0,-9.589248E-1,-9.8967545E-2,-2.5490621E-2,-9.8967545E-2,-5.865007E-1,1.7245052E-2,3.8346928E-1,-3.0771513E-2,9.1312486E-1,-2.7213052E-2,2.8779957E-2,-3.000749E-2,5.2946587E-3,3.390659E-2,1.3411002E-2,-1.6636472E-2,5.5739332E-2,2.6751427E-2,6.7445957E-3,-2.6291067E-2,3.840149E-3,-2.6207093E-2],"split_indices":[3,7,7,5,7,5,7,3,0,7,0,0,2,0,2,2,2,0,2,3,0,3,0,7,0,0,0,0,0,0,0,0,0,0,0,0,0],"split_type":[0,0,0,0,0,0,0,0,0,0,0,0,0,0,0,0,0,0,0,0,0,0,0,0,0,0,0,0,0,0,0,0,0,0,0,0,0],"sum_hessian":[3.038928E2,1.2655186E2,1.7734096E2,9.559802E1,3.0953835E1,6.2185146E1,1.1515581E2,4.6037544E1,4.9560474E1,2.7906284E1,3.0475507E0,3.5592747E1,2.6592398E1,7.089371E0,1.0806644E2,8.365382E0,3.7672165E1,7.282784E0,4.227769E1,2.140319E1,6.5030923E0,1.7721363E1,8.871035E0,8.444946E1,2.3616972E1,3.184122E0,5.1812596E0,1.1156839E1,2.6515324E1,2.646243E1,1.5815262E1,1.0076134E1,1.1327058E1,1.4097061E1,3.6243021E0,7.577209E1,8.677381E0],"tree_param":{"num_deleted":"0","num_feature":"8","num_nodes":"37","size_leaf_vector":"1"}},{"base_weights":[-6.805115E-2,5.297003E-2,-4.959177E-1,3.3254914E-3,-3.293356E-2,-4.197812E-1,5.267354E-1,-2.3826787E-2,-6.905667E-3,3.012526E-1,4.8780605E-2,2.3421874E-4,2.6483694E-2],"categories":[],"categories_nodes":[],"categories_segments":[],"categories_sizes":[],"default_left":[0,0,0,0,0,0,0,0,0,0,0,0,0],"id":21,"left_children":[1,-1,3,5,-1,7,9,-1,-1,11,-1,-1,-1],"loss_changes":[1.3870157E2,0E0,1.7006458E1,1.1768934E1,0E0,3.4045506E-1,1.9910355E0,0E0,0E0,1.1269795E0,0E0,0E0,0E0],"parents":[2147483647,0,0,2,2,3,3,5,5,6,6,9,9],"right_children":[2,-1,4,6,-1,8,10,-1,-1,12,-1,-1,-1],"split_conditions":[-5.1478356E-1,5.297003E-2,-8.0439955E-2,-2.530735E-1,-3.293356E-2,1.5808937E-1,1.3342946E0,-2.3826787E-2,-6.905667E-3,6.814374E-1,4.8780605E-2,2.3421874E-4,2.6483694E-2],"split_indices":[6,0,6,3,0,0,2,0,0,5,0,0,0],"split_type":[0,0,0,0,0,0,0,0,0,0,0,0,0],"sum_hessian":[2.8555234E2,7.808483E1,2.0746751E2,5.109616E1,1.5637135E2,2.8259268E1,2.2836893E1,2.2648798E1,5.61047E0,1.646166E1,6.3752317E0,7.7969165E0,8.664744E0],"tree_param":{"num_deleted":"0","num_feature":"8","num_nodes":"13","size_leaf_vector":"1"}},{"base_weights":[6.255696E-2,2.7851212E-1,-6.1046934E-1,3.8880545E-1,-3.3549976E-2,-3.2600325E-2,-4.4139922E-1,5.322336E-1,-1.7680867E-1,-1.2757628E-2,-2.9982522E-2,3.409779E-1,7.645997E-1,1.672748E-2,-5.001704E-1,2.6338426E-2,-3.203513E-5,4.841062E-2,2.7551422E-2,-2.1032427E-2,1.0632361E-2,-1.406959E-2,-3.180588E-2],"categories":[],"categories_nodes":[],"categories_segments":[],"categories_sizes":[],"default_left":[0,0,0,0,0,0,0,0,0,0,0,0,0,0,0,0,0,0,0,0,0,0,0],"id":22,"left_children":[1,3,5,7,-1,-1,9,11,13,-1,-1,15,17,19,21,-1,-1,-1,-1,-1,-1,-1,-1],"loss_changes":[4.5119286E1,2.4854212E1,1.3226128E-1,1.72768E1,0E0,0E0,3.0496168E-1,7.139374E0,2.7706413E0,0E0,0E0,6.0661755E0,2.5872803E0,2.459679E0,2.1889353E-1,0E0,0E0,0E0,0E0,0E0,0E0,0E0,0E0],"parents":[2147483647,0,0,1,1,2,2,3,3,6,6,7,7,8,8,11,11,12,12,13,13,14,14],"right_children":[2,4,6,8,-1,-1,10,12,14,-1,-1,16,18,20,22,-1,-1,-1,-1,-1,-1,-1,-1],"split_conditions":[-2.2276194E-1,9.0697443E-1,1.648658E0,9.4978833E-1,-3.3549976E-2,-3.2600325E-2,8.534327E-1,-5.228464E-1,-7.327767E-1,-1.2757628E-2,-2.9982522E-2,7.58073E-1,-9.6022123E-1,-5.228464E-1,-5.258776E-1,2.6338426E-2,-3.203513E-5,4.841062E-2,2.7551422E-2,-2.1032427E-2,1.0632361E-2,-1.406959E-2,-3.180588E-2],"split_indices":[3,1,5,4,0,0,1,3,0,0,0,7,7,3,3,0,0,0,0,0,0,0,0],"split_type":[0,0,0,0,0,0,0,0,0,0,0,0,0,0,0,0,0,0,0,0,0,0,0],"sum_hessian":[3.084907E2,2.3410709E2,7.43836E1,2.1036711E2,2.3739975E1,5.694537E1,1.743823E1,1.6800125E2,4.236586E1,9.500857E0,7.937373E0,9.374196E1,7.4259285E1,2.6903055E1,1.5462805E1,6.0558006E1,3.3183956E1,3.5967365E1,3.8291916E1,7.810113E0,1.9092943E1,7.3844733E0,8.078331E0],"tree_param":{"num_deleted":"0","num_feature":"8","num_nodes":"23","size_leaf_vector":"1"}},{"base_weights":[2.0141112E-2,2.8017297E-1,-1.733935E-1,7.630955E-2,5.37118E-1,-4.2454475E-1,-4.4344835E-2,-3.618887E-1,1.6862282E-1,6.290474E-1,1.2745836E-2,-2.953187E-1,-3.2273684E-2,7.651547E-2,-4.7369912E-1,1.1914189E-2,-3.139847E-2,6.134155E-1,2.8762375E-3,5.9112716E-3,6.846948E-1,-2.031804E-2,2.6995525E-2,-4.3121132E-1,2.3556305E-1,1.3571133E-1,-2.4689302E-2,-3.39804E-1,-3.0335197E-2,1.3691972E-2,4.165436E-2,-4.0486217E-3,2.2666195E-2,1.6248181E-2,3.9124448E-2,-2.5943417E-2,-1.1267661E-2,2.9738117E-2,-7.234198E-3,3.1424176E-2,3.869497E-3,-2.3394777E-2,5.429225E-3],"categories":[],"categories_nodes":[],"categories_segments":[],"categories_sizes":[],"default_left":[0,0,0,0,0,0,0,0,0,0,0,0,0,0,0,0,0,0,0,0,0,0,0,0,0,0,0,0,0,0,0,0,0,0,0,0,0,0,0,0,0,0,0],"id":23,"left_children":[1,3,5,7,9,11,13,15,17,19,21,23,-1,25,27,-1,-1,29,31,-1,33,-1,-1,35,37,39,-1,41,-1,-1,-1,-1,-1,-1,-1,-1,-1,-1,-1,-1,-1,-1,-1],"loss_changes":[1.533284E1,6.7127304E0,5.586523E0,3.0321965E0,2.6839733E0,1.3944187E0,6.125537E0,2.2635794E0,4.5026026E0,1.2164059E0,2.3783844E0,2.9518337E0,0E0,3.1253102E0,1.6094828E-1,0E0,0E0,9.028306E-1,1.8222649E0,0E0,1.1588936E0,0E0,0E0,3.814621E-1,1.2911444E0,2.2941768E0,0E0,9.8093975E-1,0E0,0E0,0E0,0E0,0E0,0E0,0E0,0E0,0E0,0E0,0E0,0E0,0E0,0E0,0E0],"parents":[2147483647,0,0,1,1,2,2,3,3,4,4,5,5,6,6,7,7,8,8,9,9,10,10,11,11,13,13,14,14,17,17,18,18,20,20,23,23,24,24,25,25,27,27],"right_children":[2,4,6,8,10,12,14,16,18,20,22,24,-1,26,28,-1,-1,30,32,-1,34,-1,-1,36,38,40,-1,42,-1,-1,-1,-1,-1,-1,-1,-1,-1,-1,-1,-1,-1,-1,-1],"split_conditions":[-4.95566E-1,7.6473534E-1,6.9508314E-1,-1.0297321E0,6.814374E-1,8.3850525E-2,1.3342946E0,-1.2524486E0,-6.5853786E-1,-1.0297321E0,8.7678456E-1,-2.8734368E-1,-3.2273684E-2,9.1312486E-1,2.5052786E0,1.1914189E-2,-3.139847E-2,-5.258776E-1,-2.0418671E-1,5.9112716E-3,-6.774354E-1,-2.031804E-2,2.6995525E-2,6.814374E-1,6.814374E-1,7.052498E-1,-2.4689302E-2,2.202163E0,-3.0335197E-2,1.3691972E-2,4.165436E-2,-4.0486217E-3,2.2666195E-2,1.6248181E-2,3.9124448E-2,-2.5943417E-2,-1.1267661E-2,2.9738117E-2,-7.234198E-3,3.1424176E-2,3.869497E-3,-2.3394777E-2,5.429225E-3],"split_indices":[3,7,7,0,5,0,2,0,0,0,7,0,0,7,3,0,0,3,4,0,3,0,0,5,5,7,0,3,0,0,0,0,0,0,0,0,0,0,0,0,0,0,0],"split_type":[0,0,0,0,0,0,0,0,0,0,0,0,0,0,0,0,0,0,0,0,0,0,0,0,0,0,0,0,0,0,0,0,0,0,0,0,0,0,0,0,0,0,0],"sum_hessian":[3.024979E2,1.2910384E2,1.7339404E2,7.292802E1,5.6175823E1,5.781373E1,1.15580315E2,1.19934225E1,6.0934597E1,4.746437E1,8.7114525E0,3.8237274E1,1.9576454E1,9.0651436E1,2.492888E1,3.6005816E0,8.39284E0,1.5645239E1,4.5289356E1,5.146165E0,4.2318207E1,4.875107E0,3.8363454E0,3.0743744E1,7.4935293E0,8.2976105E1,7.6753283E0,1.4569019E1,1.0359861E1,7.2066927E0,8.438546E0,3.868632E1,6.6030345E0,1.0187913E1,3.213029E1,2.0155142E1,1.0588601E1,3.698547E0,3.7949824E0,7.5651755E0,7.5410934E1,1.1471472E1,3.0975485E0],"tree_param":{"num_deleted":"0","num_feature":"8","num_nodes":"43","size_leaf_vector":"1"}},{"base_weights":[-8.901722E-2,5.0890762E-2,-4.7895718E-1,-5.537902E-1,7.1107113E-1,-2.061343E-1,-3.254168E-2,-1.6350534E-3,4.8105013E-2,-5.2912235E-1,3.0137008E-1,-1.1168178E-2,-2.9223366E-2,-7.605362E-3,2.2409605E-2],"categories":[],"categories_nodes":[],"categories_segments":[],"categories_sizes":[],"default_left":[0,0,0,0,0,0,0,0,0,0,0,0,0,0,0],"id":24,"left_children":[1,-1,3,5,7,9,-1,-1,-1,11,13,-1,-1,-1,-1],"loss_changes":[1.19082115E2,0E0,1.8547932E1,6.278141E0,2.445188E0,7.34853E0,0E0,0E0,0E0,2.4894142E-1,1.2642351E0,0E0,0E0,0E0,0E0],"parents":[2147483647,0,0,2,2,3,3,4,4,5,5,9,9,10,10],"right_children":[2,-1,4,6,8,10,-1,-1,-1,12,14,-1,-1,-1,-1],"split_conditions":[-5.1478356E-1,5.0890762E-2,1.1746831E0,-8.0439955E-2,-5.258776E-1,-2.530735E-1,-3.254168E-2,-1.6350534E-3,4.8105013E-2,-8.812544E-1,7.692445E-2,-1.1168178E-2,-2.9223366E-2,-7.605362E-3,2.2409605E-2],"split_indices":[6,0,1,6,3,3,0,0,0,0,5,0,0,0,0],"split_type":[0,0,0,0,0,0,0,0,0,0,0,0,0,0,0],"sum_hessian":[2.73905E2,7.087158E1,2.0303342E2,1.9160341E2,1.1430002E1,4.2718803E1,1.4888461E2,3.0032032E0,8.426799E0,2.619935E1,1.6519453E1,5.064226E0,2.1135124E1,3.8649626E0,1.2654491E1],"tree_param":{"num_deleted":"0","num_feature":"8","num_nodes":"15","size_leaf_vector":"1"}},{"base_weights":[5.5846047E-2,-3.409256E-2,4.55805E-1,5.2483726E-1,-3.2274574E-2,5.769491E-1,-3.377279E-1,3.960609E-1,7.6972055E-1,-2.6369749E-2,1.7228861E-3,2.7626503E-2,7.2815414E-3,6.789736E-3,4.023078E-2],"categories":[],"categories_nodes":[],"categories_segments":[],"categories_sizes":[],"default_left":[0,0,0,0,0,0,0,0,0,0,0,0,0,0,0],"id":25,"left_children":[1,-1,3,5,-1,7,9,11,13,-1,-1,-1,-1,-1,-1],"loss_changes":[9.167951E1,0E0,1.5648811E1,8.772259E0,0E0,5.852619E0,8.695811E-1,3.578207E0,1.694107E0,0E0,0E0,0E0,0E0,0E0,0E0],"parents":[2147483647,0,0,2,2,3,3,5,5,6,6,7,7,8,8],"right_children":[2,-1,4,6,-1,8,10,12,14,-1,-1,-1,-1,-1,-1],"split_conditions":[-8.0439955E-2,-3.409256E-2,9.0697443E-1,-2.2276194E-1,-3.2274574E-2,-4.95566E-1,8.7678456E-1,-1.1108717E0,-1.1782098E0,-2.6369749E-2,1.7228861E-3,2.7626503E-2,7.2815414E-3,6.789736E-3,4.023078E-2],"split_indices":[6,0,1,3,0,3,7,7,0,0,0,0,0,0,0],"split_type":[0,0,0,0,0,0,0,0,0,0,0,0,0,0,0],"sum_hessian":[3.0875006E2,1.0820972E2,2.0054033E2,1.892894E2,1.12509365E1,1.789266E2,1.0362785E1,9.415193E1,8.477468E1,6.7663116E0,3.596474E0,5.6958523E1,3.7193413E1,4.8277593E0,7.994692E1],"tree_param":{"num_deleted":"0","num_feature":"8","num_nodes":"15","size_leaf_vector":"1"}},{"base_weights":[1.2985053E-2,-3.290224E-2,1.759304E-1,6.224683E-1,9.194837E-3,7.738018E-1,-2.4502596E-2,-6.584696E-2,8.457947E-1,4.5723338E-2,9.153615E-2,1.3591719E-1,-3.1257918E-1,5.2941795E-2,1.2748015E-2,-2.6764993E-2,2.0643478E-2,7.718325E-4,3.594465E-2,-2.215281E-2,5.5774353E-3],"categories":[],"categories_nodes":[],"categories_segments":[],"categories_sizes":[],"default_left":[0,0,0,0,0,0,0,0,0,0,0,0,0,0,0,0,0,0,0,0,0],"id":26,"left_children":[1,-1,3,5,7,9,-1,11,13,-1,15,17,19,-1,-1,-1,-1,-1,-1,-1,-1],"loss_changes":[3.2229576E1,0E0,1.7619953E1,1.1252619E1,1.1067852E1,5.3022537E0,0E0,8.057487E0,1.4261255E0,0E0,2.4253778E0,6.1561613E0,4.111049E0,0E0,0E0,0E0,0E0,0E0,0E0,0E0,0E0],"parents":[2147483647,0,0,2,2,3,3,4,4,5,5,7,7,8,8,10,10,11,11,12,12],"right_children":[2,-1,4,6,8,10,-1,12,14,-1,16,18,20,-1,-1,-1,-1,-1,-1,-1,-1],"split_conditions":[-5.1478356E-1,-3.290224E-2,-8.0439955E-2,1.3342946E0,8.035367E-2,3.8346928E-1,-2.4502596E-2,-4.95566E-1,9.232425E-1,4.5723338E-2,6.035224E-1,9.4978833E-1,4.396322E-1,5.2941795E-2,1.2748015E-2,-2.6764993E-2,2.0643478E-2,7.718325E-4,3.594465E-2,-2.215281E-2,5.5774353E-3],"split_indices":[6,0,6,2,3,3,0,3,5,0,0,4,5,0,0,0,0,0,0,0,0],"split_type":[0,0,0,0,0,0,0,0,0,0,0,0,0,0,0,0,0,0,0,0,0],"sum_hessian":[2.9314362E2,5.656198E1,2.3658165E2,6.3415173E1,1.7316647E2,5.6168983E1,7.246189E0,1.5964804E2,1.3518438E1,4.616424E1,1.0004741E1,8.7851616E1,7.1796425E1,9.229235E0,4.289203E0,3.0594652E0,6.9452753E0,7.379815E1,1.4053464E1,5.505169E1,1.6744732E1],"tree_param":{"num_deleted":"0","num_feature":"8","num_nodes":"21","size_leaf_vector":"1"}},{"base_weights":[-7.420907E-2,4.887231E-2,-4.8413002E-1,-5.601729E-1,7.887406E-1,-2.5069338E-1,-3.218149E-2,4.69617E-2,1.7343702E-2,-4.6914512E-1,2.3318721E-1,-6.135484E-3,-2.7221683E-2,3.358133E-2,-1.2107692E-3],"categories":[],"categories_nodes":[],"categories_segments":[],"categories_sizes":[],"default_left":[0,0,0,0,0,0,0,0,0,0,0,0,0,0,0],"id":27,"left_children":[1,-1,3,5,7,9,-1,-1,-1,11,13,-1,-1,-1,-1],"loss_changes":[1.19804565E2,0E0,1.9776917E1,4.640503E0,3.1799984E-1,4.5847473E0,0E0,0E0,0E0,6.3565683E-1,1.6186562E0,0E0,0E0,0E0,0E0],"parents":[2147483647,0,0,2,2,3,3,4,4,5,5,9,9,10,10],"right_children":[2,-1,4,6,8,10,-1,-1,-1,12,14,-1,-1,-1,-1],"split_conditions":[-5.1478356E-1,4.887231E-2,1.1746831E0,-8.0439955E-2,1.4943885E0,-2.2276194E-1,-3.218149E-2,4.69617E-2,1.7343702E-2,-8.812544E-1,1.0384851E-1,-6.135484E-3,-2.7221683E-2,3.358133E-2,-1.2107692E-3],"split_indices":[6,0,1,6,0,3,0,0,0,0,1,0,0,0,0],"split_type":[0,0,0,0,0,0,0,0,0,0,0,0,0,0,0],"sum_hessian":[2.7592398E2,7.69303E1,1.9899368E2,1.883782E2,1.0615478E1,4.111505E1,1.4726315E2,6.910084E0,3.7053933E0,2.849009E1,1.2624962E1,5.79283E0,2.269726E1,4.2185926E0,8.406369E0],"tree_param":{"num_deleted":"0","num_feature":"8","num_nodes":"15","size_leaf_vector":"1"}},{"base_weights":[4.2512517E-2,-3.351456E-2,4.512926E-1,5.0489736E-1,-3.037234E-1,3.2432124E-1,6.9083506E-1,-9.808675E-2,-2.7808016E-2,4.037869E-1,-2.544721E-1,3.7983556E-3,7.36438E-1,-2.7756898E-2,1.2038594E-2,2.8404787E-2,7.3236264E-3,-2.6157528E-2,1.5853003E-2,4.302606E-2,3.026093E-2],"categories":[],"categories_nodes":[],"categories_segments":[],"categories_sizes":[],"default_left":[0,0,0,0,0,0,0,0,0,0,0,0,0,0,0,0,0,0,0,0,0],"id":28,"left_children":[1,-1,3,5,7,9,11,13,-1,15,17,-1,19,-1,-1,-1,-1,-1,-1,-1,-1],"loss_changes":[8.760392E1,0E0,7.9097366E0,5.6837387E0,5.6380117E-1,4.3930836E0,2.3028793E0,1.5111966E0,0E0,3.3237143E0,1.9805231E0,0E0,6.473465E-1,0E0,0E0,0E0,0E0,0E0,0E0,0E0,0E0],"parents":[2147483647,0,0,2,2,3,3,4,4,5,5,6,6,7,7,9,9,10,10,12,12],"right_children":[2,-1,4,6,8,10,12,14,-1,16,18,-1,20,-1,-1,-1,-1,-1,-1,-1,-1],"split_conditions":[-8.0439955E-2,-3.351456E-2,-2.2276194E-1,-4.95566E-1,9.8970056E-1,9.4978833E-1,-1.1782098E0,-9.8967545E-2,-2.7808016E-2,-1.1108717E0,2.3922572E0,3.7983556E-3,-9.6022123E-1,-2.7756898E-2,1.2038594E-2,2.8404787E-2,7.3236264E-3,-2.6157528E-2,1.5853003E-2,4.302606E-2,3.026093E-2],"split_indices":[6,0,3,3,3,4,0,2,0,7,4,0,7,0,0,0,0,0,0,0,0],"split_type":[0,0,0,0,0,0,0,0,0,0,0,0,0,0,0,0,0,0,0,0,0],"sum_hessian":[2.9868887E2,1.0853986E2,1.90149E2,1.779767E2,1.2172297E1,9.195517E1,8.602154E1,7.691474E0,4.4808226E0,8.1272026E1,1.068314E1,6.2749166E0,7.974662E1,3.128549E0,4.562925E0,4.862559E1,3.264643E1,7.443538E0,3.239602E0,3.7739525E1,4.2007095E1],"tree_param":{"num_deleted":"0","num_feature":"8","num_nodes":"21","size_leaf_vector":"1"}},{"base_weights":[-8.740985E-3,-3.2380007E-2,1.368558E-1,5.5526674E-1,-1.6466564E-2,6.9412154E-1,-2.4068752E-2,-9.972006E-2,7.6516944E-1,8.7404484E-1,2.1826857E-1,1.0070427E-1,-3.594548E-1,4.5828532E-2,1.2094851E-2,4.6040967E-2,1.8784475E-2,-9.1388775E-4,2.5069509E-2,-6.0129643E-4,3.265717E-2,-2.3097603E-2,-3.1962615E-4],"categories":[],"categories_nodes":[],"categories_segments":[],"categories_sizes":[],"default_left":[0,0,0,0,0,0,0,0,0,0,0,0,0,0,0,0,0,0,0,0,0,0,0],"id":29,"left_children":[1,-1,3,5,7,9,-1,11,13,15,17,19,21,-1,-1,-1,-1,-1,-1,-1,-1,-1,-1],"loss_changes":[2.7444939E1,0E0,1.5444582E1,9.640097E0,1.1480059E1,4.6125183E0,0E0,8.406776E0,1.0066214E0,4.836235E-1,1.2112536E0,5.741862E0,2.4925957E0,0E0,0E0,0E0,0E0,0E0,0E0,0E0,0E0,0E0,0E0],"parents":[2147483647,0,0,2,2,3,3,4,4,5,5,7,7,8,8,9,9,10,10,11,11,12,12],"right_children":[2,-1,4,6,8,10,-1,12,14,16,18,20,22,-1,-1,-1,-1,-1,-1,-1,-1,-1,-1],"split_conditions":[-5.1478356E-1,-3.2380007E-2,-8.0439955E-2,1.3342946E0,-2.2276194E-1,-2.2276194E-1,-2.4068752E-2,-4.95566E-1,9.232425E-1,2.3922572E0,8.7678456E-1,9.4978833E-1,4.396322E-1,4.5828532E-2,1.2094851E-2,4.6040967E-2,1.8784475E-2,-9.1388775E-4,2.5069509E-2,-6.0129643E-4,3.265717E-2,-2.3097603E-2,-3.1962615E-4],"split_indices":[6,0,6,2,3,3,0,3,5,4,7,4,5,0,0,0,0,0,0,0,0,0,0],"split_type":[0,0,0,0,0,0,0,0,0,0,0,0,0,0,0,0,0,0,0,0,0,0,0],"sum_hessian":[2.9255472E2,5.378635E1,2.3876836E2,6.350266E1,1.752657E2,5.63779E1,7.1247582E0,1.5929884E2,1.5966856E1,4.014997E1,1.622793E1,9.004381E1,6.9255035E1,1.1652623E1,4.314233E0,3.574651E1,4.4034624E0,9.158388E0,7.069541E0,7.5445656E1,1.4598153E1,5.3214672E1,1.6040363E1],"tree_param":{"num_deleted":"0","num_feature":"8","num_nodes":"23","size_leaf_vector":"1"}},{"base_weights":[-8.491405E-2,4.6884492E-2,-4.7444126E-1,-5.495187E-1,3.745373E-2,-3.0689254E-2,-1.5935642E-1,1.9938737E-1,-3.0138165E-2,2.4702702E-2,-0E0],"categories":[],"categories_nodes":[],"categories_segments":[],"categories_sizes":[],"default_left":[0,0,0,0,0,0,0,0,0,0,0],"id":30,"left_children":[1,-1,3,5,-1,-1,7,9,-1,-1,-1],"loss_changes":[1.0795565E2,0E0,1.8420788E1,4.478096E0,0E0,0E0,4.585119E0,9.894669E-1,0E0,0E0,0E0],"parents":[2147483647,0,0,2,2,3,3,6,6,7,7],"right_children":[2,-1,4,6,-1,-1,8,10,-1,-1,-1],"split_conditions":[-5.1478356E-1,4.6884492E-2,1.1746831E0,-2.2276194E-1,3.745373E-2,-3.0689254E-2,-8.0439955E-2,1.0384851E-1,-3.0138165E-2,2.4702702E-2,-0E0],"split_indices":[6,0,1,3,0,0,6,1,0,0,0],"split_type":[0,0,0,0,0,0,0,0,0,0,0],"sum_hessian":[2.690187E2,7.374807E1,1.9527063E2,1.845772E2,1.0693435E1,1.577617E2,2.6815504E1,1.5002417E1,1.1813087E1,5.660053E0,9.342364E0],"tree_param":{"num_deleted":"0","num_feature":"8","num_nodes":"11","size_leaf_vector":"1"}},{"base_weights":[8.329241E-2,2.8230512E-1,-5.822887E-1,3.7235907E-1,-3.2363907E-2,-6.2497795E-1,-4.1080824E-1,4.8957896E-1,-1.2654485E-1,-3.1805438E-1,-3.2787807E-2,-7.302309E-3,-2.9220764E-2,2.974162E-1,3.656691E-2,-3.936522E-1,1.22150026E-1,-2.2055837E-3,-2.4834828E-2,2.716997E-2,9.941229E-3,-2.8450927E-2,-3.668394E-3,1.45233E-2,-2.7727386E-2],"categories":[],"categories_nodes":[],"categories_segments":[],"categories_sizes":[],"default_left":[0,0,0,0,0,0,0,0,0,0,0,0,0,0,0,0,0,0,0,0,0,0,0,0,0],"id":31,"left_children":[1,3,5,7,-1,9,11,13,15,17,-1,-1,-1,19,-1,21,23,-1,-1,-1,-1,-1,-1,-1,-1],"loss_changes":[4.144925E1,2.0379982E1,1.6678238E-1,1.2985086E1,0E0,2.1614647E-1,6.569009E-1,7.9862022E0,2.902165E0,2.8003508E-1,0E0,0E0,0E0,2.2801495E0,0E0,1.0706692E0,2.709579E0,0E0,0E0,0E0,0E0,0E0,0E0,0E0,0E0],"parents":[2147483647,0,0,1,1,2,2,3,3,5,5,6,6,7,7,8,8,9,9,13,13,15,15,16,16],"right_children":[2,4,6,8,-1,10,12,14,16,18,-1,-1,-1,20,-1,22,24,-1,-1,-1,-1,-1,-1,-1,-1],"split_conditions":[-2.2276194E-1,9.0697443E-1,1.648658E0,9.4978833E-1,-3.2363907E-2,8.035367E-2,6.176635E-1,-5.228464E-1,-3.7431976E-1,-6.4627156E-2,-3.2787807E-2,-7.302309E-3,-2.9220764E-2,-6.168123E-1,3.656691E-2,-2.7304439E-2,-7.327767E-1,-2.2055837E-3,-2.4834828E-2,2.716997E-2,9.941229E-3,-2.8450927E-2,-3.668394E-3,1.45233E-2,-2.7727386E-2],"split_indices":[3,1,5,4,0,3,2,3,3,0,0,0,0,3,0,2,0,0,0,0,0,0,0,0,0],"split_type":[0,0,0,0,0,0,0,0,0,0,0,0,0,0,0,0,0,0,0,0,0,0,0,0,0],"sum_hessian":[3.109066E2,2.399009E2,7.100569E1,2.1935751E2,2.0543388E1,5.4268143E1,1.673755E1,1.7780135E2,4.1556152E1,6.275083E0,4.799306E1,7.585867E0,9.151685E0,1.0053487E2,7.726649E1,1.9949205E1,2.1606949E1,3.1900058E0,3.0850773E0,2.718448E1,7.335039E1,1.2187383E1,7.761823E0,1.7878532E1,3.7284162E0],"tree_param":{"num_deleted":"0","num_feature":"8","num_nodes":"25","size_leaf_vector":"1"}},{"base_weights":[2.0482058E-2,-3.1934746E-2,1.6515057E-1,3.6059132E-1,-1.00609474E-1,8.7054074E-2,5.3378785E-1,-1.9238701E-1,4.6525862E-2,5.123819E-1,-1.6487727E-1,6.0488224E-1,-3.1730306E-1,-3.0282065E-1,4.0453258E-1,3.6369268E-2,-5.8643087E-3,-1.4330881E-2,1.2770096E-2,3.194652E-2,-4.789236E-3,-2.1901575E-3,-2.4207737E-2,-1.7944505E-2,2.0368984E-2,3.465615E-2,-6.6053765E-3],"categories":[],"categories_nodes":[],"categories_segments":[],"categories_sizes":[],"default_left":[0,0,0,0,0,0,0,0,0,0,0,0,0,0,0,0,0,0,0,0,0,0,0,0,0,0,0],"id":32,"left_children":[1,-1,3,5,7,9,11,13,-1,15,17,19,21,23,25,-1,-1,-1,-1,-1,-1,-1,-1,-1,-1,-1,-1],"loss_changes":[2.787767E1,0E0,1.2535347E1,6.467823E0,9.789027E0,6.037953E0,5.338278E0,6.3670197E0,0E0,2.9809456E0,1.8823352E0,1.9884758E0,2.4853003E-1,3.3581777E0,2.486207E0,0E0,0E0,0E0,0E0,0E0,0E0,0E0,0E0,0E0,0E0,0E0,0E0],"parents":[2147483647,0,0,2,2,3,3,4,4,5,5,6,6,7,7,9,9,10,10,11,11,12,12,13,13,14,14],"right_children":[2,-1,4,6,8,10,12,14,-1,16,18,20,22,24,26,-1,-1,-1,-1,-1,-1,-1,-1,-1,-1,-1,-1],"split_conditions":[-5.1478356E-1,-3.1934746E-2,1.196852E0,7.249851E-2,9.0697443E-1,-8.0439955E-2,1.1746831E0,9.4978833E-1,4.6525862E-2,-3.440082E-1,9.4978833E-1,9.1312486E-1,7.692445E-2,-2.2276194E-1,2.3922572E0,3.6369268E-2,-5.8643087E-3,-1.4330881E-2,1.2770096E-2,3.194652E-2,-4.789236E-3,-2.1901575E-3,-2.4207737E-2,-1.7944505E-2,2.0368984E-2,3.465615E-2,-6.6053765E-3],"split_indices":[6,0,6,7,1,6,1,4,0,3,4,7,5,3,4,0,0,0,0,0,0,0,0,0,0,0,0],"split_type":[0,0,0,0,0,0,0,0,0,0,0,0,0,0,0,0,0,0,0,0,0,0,0,0,0,0,0],"sum_hessian":[2.9072522E2,5.1583004E1,2.3914223E2,1.3781332E2,1.01328896E2,5.423597E1,8.357736E1,9.388304E1,7.44585E0,1.9938143E1,3.429783E1,7.750952E1,6.0678415E0,7.978295E1,1.4100094E1,1.4865772E1,5.0723696E0,2.7025455E1,7.2723722E0,7.41377E1,3.3718166E0,3.004609E0,3.0632324E0,7.453404E1,5.2489047E0,9.100722E0,4.999371E0],"tree_param":{"num_deleted":"0","num_feature":"8","num_nodes":"27","size_leaf_vector":"1"}},{"base_weights":[-8.7935634E-2,4.5271106E-2,-4.5677093E-1,-5.328981E-1,7.2353035E-1,-1.9950518E-1,-3.1556617E-2,1.6592115E-2,4.230177E-2,-4.4941851E-1,2.5402704E-1,-2.8029174E-2,-3.6937152E-3,2.1362787E-2,-0E0],"categories":[],"categories_nodes":[],"categories_segments":[],"categories_sizes":[],"default_left":[0,0,0,0,0,0,0,0,0,0,0,0,0,0,0],"id":33,"left_children":[1,-1,3,5,7,9,-1,-1,-1,11,13,-1,-1,-1,-1],"loss_changes":[9.8602165E1,0E0,1.800077E1,5.850567E0,1.8858099E-1,5.098488E0,0E0,0E0,0E0,1.0951409E0,6.854799E-1,0E0,0E0,0E0,0E0],"parents":[2147483647,0,0,2,2,3,3,4,4,5,5,9,9,10,10],"right_children":[2,-1,4,6,8,10,-1,-1,-1,12,14,-1,-1,-1,-1],"split_conditions":[-5.1478356E-1,4.5271106E-2,1.1746831E0,-8.0439955E-2,1.3342946E0,-2.2276194E-1,-3.1556617E-2,1.6592115E-2,4.230177E-2,1.6710227E0,9.0047777E-1,-2.8029174E-2,-3.6937152E-3,2.1362787E-2,-0E0],"split_indices":[6,0,1,6,2,3,0,0,0,4,0,0,0,0,0],"split_type":[0,0,0,0,0,0,0,0,0,0,0,0,0,0,0],"sum_hessian":[2.671151E2,7.1858315E1,1.9525679E2,1.8402101E2,1.1235776E1,4.28029E1,1.4121812E2,3.7549827E0,7.480793E0,2.7744303E1,1.5058594E1,2.0821823E1,6.922479E0,8.431721E0,6.6268735E0],"tree_param":{"num_deleted":"0","num_feature":"8","num_nodes":"15","size_leaf_vector":"1"}},{"base_weights":[7.1460396E-2,-3.2755025E-2,4.3943682E-1,5.042588E-1,-3.1463027E-2,5.806202E-1,1.04996264E-1,7.082661E-1,4.2895988E-1,-1.6178098E-1,5.366174E-1,2.9490536E-2,4.2414993E-2,1.3702466E-2,3.9193973E-2,8.668386E-3,-2.3814997E-2,4.593305E-2,5.2379635E-3],"categories":[],"categories_nodes":[],"categories_segments":[],"categories_sizes":[],"default_left":[0,0,0,0,0,0,0,0,0,0,0,0,0,0,0,0,0,0,0],"id":34,"left_children":[1,-1,3,5,-1,7,9,11,13,15,17,-1,-1,-1,-1,-1,-1,-1,-1],"loss_changes":[8.093651E1,0E0,1.422781E1,5.6672516E0,0E0,2.6638947E0,3.8039947E0,7.581215E-1,3.8380413E0,2.260594E0,1.8772657E0,0E0,0E0,0E0,0E0,0E0,0E0,0E0,0E0],"parents":[2147483647,0,0,2,2,3,3,5,5,6,6,7,7,8,8,9,9,10,10],"right_children":[2,-1,4,6,-1,8,10,12,14,16,18,-1,-1,-1,-1,-1,-1,-1,-1],"split_conditions":[-8.0439955E-2,-3.2755025E-2,9.0697443E-1,9.4978833E-1,-3.1463027E-2,-9.6022123E-1,2.3922572E0,-5.228464E-1,8.829345E-1,-9.6698606E-1,7.1530473E-1,2.9490536E-2,4.2414993E-2,1.3702466E-2,3.9193973E-2,8.668386E-3,-2.3814997E-2,4.593305E-2,5.2379635E-3],"split_indices":[6,0,1,4,0,7,4,3,7,1,7,0,0,0,0,0,0,0,0],"split_type":[0,0,0,0,0,0,0,0,0,0,0,0,0,0,0,0,0,0,0],"sum_hessian":[3.0073184E2,1.00750435E2,1.9998141E2,1.8913136E2,1.08500595E1,1.5817476E2,3.0956598E1,8.353641E1,7.463835E1,1.9374847E1,1.1581751E1,4.8465343E1,3.5071064E1,5.338951E1,2.1248842E1,9.443149E0,9.931699E0,5.4243283E0,6.157422E0],"tree_param":{"num_deleted":"0","num_feature":"8","num_nodes":"19","size_leaf_vector":"1"}},{"base_weights":[1.787055E-2,-3.1550672E-2,1.5735339E-1,5.726208E-1,7.459689E-3,6.8811506E-1,-2.2692095E-2,-2.6598653E-1,2.3808649E-1,7.522532E-1,-0E0,-3.3950254E-1,8.723685E-2,3.637492E-1,-1.8659835E-1,4.2460173E-2,2.2823878E-2,-2.2037154E-2,-7.0722844E-3,2.1966802E-2,-2.3226267E-2,3.9068977E-3,2.7348647E-2,-2.2575122E-3,-2.3617623E-2],"categories":[],"categories_nodes":[],"categories_segments":[],"categories_sizes":[],"default_left":[0,0,0,0,0,0,0,0,0,0,0,0,0,0,0,0,0,0,0,0,0,0,0,0,0],"id":35,"left_children":[1,-1,3,5,7,9,-1,11,13,15,-1,17,19,21,23,-1,-1,-1,-1,-1,-1,-1,-1,-1,-1],"loss_changes":[2.7557158E1,0E0,1.556504E1,8.207012E0,1.1769097E1,2.718544E0,0E0,2.2677736E0,5.499273E0,1.0631771E0,0E0,1.3026228E0,3.1627486E0,4.018441E0,8.825153E-1,0E0,0E0,0E0,0E0,0E0,0E0,0E0,0E0,0E0,0E0],"parents":[2147483647,0,0,2,2,3,3,4,4,5,5,7,7,8,8,9,9,11,11,12,12,13,13,14,14],"right_children":[2,-1,4,6,8,10,-1,12,14,16,-1,18,20,22,24,-1,-1,-1,-1,-1,-1,-1,-1,-1,-1],"split_conditions":[-5.1478356E-1,-3.1550672E-2,-8.0439955E-2,1.3342946E0,-1.1108717E0,1.648658E0,-2.2692095E-2,9.4978833E-1,8.829345E-1,1.6710227E0,-0E0,-2.8734368E-1,2.3922572E0,7.6473534E-1,9.1312486E-1,4.2460173E-2,2.2823878E-2,-2.2037154E-2,-7.0722844E-3,2.1966802E-2,-2.3226267E-2,3.9068977E-3,2.7348647E-2,-2.2575122E-3,-2.3617623E-2],"split_indices":[6,0,6,2,7,5,0,4,7,4,0,0,4,7,7,0,0,0,0,0,0,0,0,0,0],"split_type":[0,0,0,0,0,0,0,0,0,0,0,0,0,0,0,0,0,0,0,0,0,0,0,0,0],"sum_hessian":[3.028978E2,5.284027E1,2.5005751E2,6.539607E1,1.8466144E2,5.916596E1,6.230114E0,8.421899E1,1.0044246E2,5.414773E1,5.018226E0,6.997675E1,1.4242233E1,7.780052E1,2.2641937E1,3.911672E1,1.50310135E1,4.5161392E1,2.4815357E1,8.929193E0,5.3130407E0,3.117571E1,4.662481E1,1.6153782E1,6.4881554E0],"tree_param":{"num_deleted":"0","num_feature":"8","num_nodes":"25","size_leaf_vector":"1"}},{"base_weights":[-7.1127705E-2,4.3700002E-2,-4.6859476E-1,-5.4556865E-2,-3.1256035E-2,-3.9222524E-1,3.5307068E-1,-2.088207E-1,-2.4742547E-2,5.3125028E-2,6.473377E-1,-1.7111812E-2,4.5159925E-3,-5.383182E-3,1.2400031E-2,1.7833022E-2,4.0648077E-2],"categories":[],"categories_nodes":[],"categories_segments":[],"categories_sizes":[],"default_left":[0,0,0,0,0,0,0,0,0,0,0,0,0,0,0,0,0],"id":36,"left_children":[1,-1,3,5,-1,7,9,11,-1,13,15,-1,-1,-1,-1,-1,-1],"loss_changes":[9.729921E1,0E0,1.1716644E1,7.203532E0,0E0,3.6584663E-1,1.9816475E0,5.4958063E-1,0E0,4.4688416E-1,1.550374E-1,0E0,0E0,0E0,0E0,0E0,0E0],"parents":[2147483647,0,0,2,2,3,3,5,5,6,6,7,7,9,9,10,10],"right_children":[2,-1,4,6,-1,8,10,12,-1,14,16,-1,-1,-1,-1,-1,-1],"split_conditions":[-5.1478356E-1,4.3700002E-2,-8.0439955E-2,-2.530735E-1,-3.1256035E-2,7.249851E-2,9.043159E-1,8.3850525E-2,-2.4742547E-2,3.8346928E-1,1.3342946E0,-1.7111812E-2,4.5159925E-3,-5.383182E-3,1.2400031E-2,1.7833022E-2,4.0648077E-2],"split_indices":[6,0,6,3,0,7,2,0,0,3,2,0,0,0,0,0,0],"split_type":[0,0,0,0,0,0,0,0,0,0,0,0,0,0,0,0,0],"sum_hessian":[2.5702838E2,7.566228E1,1.8136609E2,5.0300377E1,1.3106572E2,2.766582E1,2.2634558E1,1.136478E1,1.6301039E1,1.196204E1,1.0672518E1,7.9910355E0,3.3737445E0,6.5182867E0,5.4437532E0,5.237567E0,5.434951E0],"tree_param":{"num_deleted":"0","num_feature":"8","num_nodes":"17","size_leaf_vector":"1"}},{"base_weights":[6.2401526E-2,1.9078432E-1,-3.1919964E-2,3.0888274E-1,-2.2816792E-1,5.720851E-1,8.4956124E-2,-6.951289E-2,-4.477755E-1,3.9618807E-3,5.914512E-1,-3.3990305E-2,5.684053E-1,6.1155252E-2,-2.7672982E-1,-2.7001768E-2,-2.6839399E-3,3.317718E-2,2.1907173E-2,1.1959805E-2,-1.1366399E-2,3.459249E-2,4.5557837E-3,1.6887372E-2,-5.979423E-3,-1.9505557E-2,-5.4629287E-3],"categories":[],"categories_nodes":[],"categories_segments":[],"categories_sizes":[],"default_left":[0,0,0,0,0,0,0,0,0,0,0,0,0,0,0,0,0,0,0,0,0,0,0,0,0,0,0],"id":37,"left_children":[1,3,-1,5,7,9,11,13,15,-1,17,19,21,23,25,-1,-1,-1,-1,-1,-1,-1,-1,-1,-1,-1,-1],"loss_changes":[2.7087069E1,1.2676439E1,0E0,1.1628393E1,1.8815258E0,7.565975E-1,6.3425255E0,9.639765E-1,7.551522E-1,0E0,5.65176E-1,4.715871E0,1.1402173E0,1.1363004E0,1.6748953E-1,0E0,0E0,0E0,0E0,0E0,0E0,0E0,0E0,0E0,0E0,0E0,0E0],"parents":[2147483647,0,0,1,1,3,3,4,4,5,5,6,6,7,7,8,8,10,10,11,11,12,12,13,13,14,14],"right_children":[2,4,-1,6,8,10,12,14,16,-1,18,20,22,24,26,-1,-1,-1,-1,-1,-1,-1,-1,-1,-1,-1,-1],"split_conditions":[9.0697443E-1,9.4978833E-1,-3.1919964E-2,-9.6022123E-1,-7.327767E-1,-1.2524486E0,8.829345E-1,3.187296E-1,2.3922572E0,3.9618807E-3,-2.8734368E-1,7.6473534E-1,9.043159E-1,-9.589248E-1,2.3922572E0,-2.7001768E-2,-2.6839399E-3,3.317718E-2,2.1907173E-2,1.1959805E-2,-1.1366399E-2,3.459249E-2,4.5557837E-3,1.6887372E-2,-5.979423E-3,-1.9505557E-2,-5.4629287E-3],"split_indices":[1,4,0,7,0,0,7,5,4,0,0,7,2,2,4,0,0,0,0,0,0,0,0,0,0,0,0],"split_type":[0,0,0,0,0,0,0,0,0,0,0,0,0,0,0,0,0,0,0,0,0,0,0,0,0,0,0],"sum_hessian":[2.99209E2,2.5361806E2,4.5590958E1,1.9823813E2,5.5379917E1,9.02074E1,1.0803074E2,3.3180576E1,2.2199343E1,3.7983625E0,8.6409035E1,8.727957E1,2.0751167E1,2.0485186E1,1.2695389E1,1.7482542E1,4.7168007E0,5.606448E1,3.0344557E1,3.585789E1,5.1421677E1,1.5963396E1,4.7877703E0,7.9713063E0,1.2513879E1,6.421422E0,6.273967E0],"tree_param":{"num_deleted":"0","num_feature":"8","num_nodes":"27","size_leaf_vector":"1"}},{"base_weights":[1.8933872E-2,-3.1134889E-2,1.5635823E-1,5.335543E-1,2.1756768E-2,7.6532024E-1,-1.3458355E-1,-5.710766E-2,4.6059996E-2,4.2242717E-2,3.9239088E-1,-2.9176593E-2,7.9381645E-2,-1.1742931E-1,4.6068825E-2,2.6348446E-2,2.3448227E-3,2.0489428E-2,-2.5086908E-2,3.0426842E-3,-1.69255E-2],"categories":[],"categories_nodes":[],"categories_segments":[],"categories_sizes":[],"default_left":[0,0,0,0,0,0,0,0,0,0,0,0,0,0,0,0,0,0,0,0,0],"id":38,"left_children":[1,-1,3,5,7,9,11,13,-1,-1,15,-1,17,19,-1,-1,-1,-1,-1,-1,-1],"loss_changes":[2.5301384E1,0E0,1.1954454E1,9.772236E0,1.2605351E1,9.185982E-1,1.702469E0,9.614289E0,0E0,0E0,3.9356017E-1,0E0,2.5101032E0,6.117055E0,0E0,0E0,0E0,0E0,0E0,0E0,0E0],"parents":[2147483647,0,0,2,2,3,3,4,4,5,5,6,6,7,7,10,10,12,12,13,13],"right_children":[2,-1,4,6,8,10,12,14,-1,-1,16,-1,18,20,-1,-1,-1,-1,-1,-1,-1],"split_conditions":[-5.1478356E-1,-3.1134889E-2,-8.0439955E-2,3.8346928E-1,8.035367E-2,-2.530735E-1,9.747166E-1,9.0697443E-1,4.6059996E-2,4.2242717E-2,-6.4627156E-2,-2.9176593E-2,1.1746831E0,-4.95566E-1,4.6068825E-2,2.6348446E-2,2.3448227E-3,2.0489428E-2,-2.5086908E-2,3.0426842E-3,-1.69255E-2],"split_indices":[6,0,6,3,3,3,0,1,0,0,0,0,1,3,0,0,0,0,0,0,0],"split_type":[0,0,0,0,0,0,0,0,0,0,0,0,0,0,0,0,0,0,0,0,0],"sum_hessian":[2.8536713E2,4.958709E1,2.3578003E2,6.1034645E1,1.7474538E2,4.5318596E1,1.571605E1,1.614174E2,1.3327975E1,3.6088467E1,9.230128E0,4.66595E0,1.10501E1,1.5296933E2,8.448075E0,6.056343E0,3.173785E0,7.3423667E0,3.707734E0,8.483193E1,6.81374E1],"tree_param":{"num_deleted":"0","num_feature":"8","num_nodes":"21","size_leaf_vector":"1"}},{"base_weights":[-8.573661E-2,4.2320218E-2,-4.666111E-1,-5.373974E-1,5.64127E-1,-5.92319E-1,6.7561753E-3,-2.786628E-3,4.0313836E-2,-3.0330569E-2,-3.2214475E-1,4.111101E-1,-2.7053226E-2,-1.281613E-3,-2.5590638E-2,3.4305E-2,-0E0],"categories":[],"categories_nodes":[],"categories_segments":[],"categories_sizes":[],"default_left":[0,0,0,0,0,0,0,0,0,0,0,0,0,0,0,0,0],"id":39,"left_children":[1,-1,3,5,7,9,11,-1,-1,-1,13,15,-1,-1,-1,-1,-1],"loss_changes":[8.632372E1,0E0,1.2895355E1,4.908001E0,1.8446462E0,2.8105545E-1,3.6840167E0,0E0,0E0,0E0,4.894557E-1,1.0607369E0,0E0,0E0,0E0,0E0,0E0],"parents":[2147483647,0,0,2,2,3,3,4,4,5,5,6,6,10,10,11,11],"right_children":[2,-1,4,6,8,10,12,-1,-1,-1,14,16,-1,-1,-1,-1,-1],"split_conditions":[-5.1478356E-1,4.2320218E-2,1.1746831E0,3.8346928E-1,-4.95566E-1,-2.2276194E-1,-8.0439955E-2,-2.786628E-3,4.0313836E-2,-3.0330569E-2,-8.0439955E-2,8.7678456E-1,-2.7053226E-2,-1.281613E-3,-2.5590638E-2,3.4305E-2,-0E0],"split_indices":[6,0,1,3,3,3,6,0,0,0,6,7,0,0,0,0,0],"split_type":[0,0,0,0,0,0,0,0,0,0,0,0,0,0,0,0,0],"sum_hessian":[2.4114032E2,6.951835E1,1.7162198E2,1.6113184E2,1.0490138E1,1.4644621E2,1.4685618E1,3.0470679E0,7.4430704E0,1.3755415E2,8.892065E0,8.69777E0,5.9878483E0,4.117484E0,4.7745814E0,4.7352486E0,3.9625216E0],"tree_param":{"num_deleted":"0","num_feature":"8","num_nodes":"17","size_leaf_vector":"1"}},{"base_weights":[3.6969278E-2,-3.209966E-2,3.83568E-1,5.533033E-1,2.0075569E-1,6.0216224E-1,2.187814E-1,5.2584037E-2,3.1810563E-2,5.431092E-1,3.8449045E-2,-9.919432E-2,3.5832375E-2,-2.8302565E-2,1.3172866E-1,3.0370465E-2,1.8800555E-2,1.3085959E-2,-2.0516472E-2,2.567996E-2,-6.5884055E-3],"categories":[],"categories_nodes":[],"categories_segments":[],"categories_sizes":[],"default_left":[0,0,0,0,0,0,0,0,0,0,0,0,0,0,0,0,0,0,0,0,0],"id":40,"left_children":[1,-1,3,5,7,9,11,13,-1,15,-1,17,-1,-1,19,-1,-1,-1,-1,-1,-1],"loss_changes":[6.913015E1,0E0,5.8514385E0,1.4213963E0,6.0619116E0,3.0294037E-1,2.4412837E0,3.5829754E0,0E0,4.007454E-1,0E0,1.2063749E0,0E0,0E0,6.6734104E0,0E0,0E0,0E0,0E0,0E0,0E0],"parents":[2147483647,0,0,2,2,3,3,4,4,5,5,6,6,7,7,9,9,11,11,14,14],"right_children":[2,-1,4,6,8,10,12,14,-1,16,-1,18,-1,-1,20,-1,-1,-1,-1,-1,-1],"split_conditions":[-8.0439955E-2,-3.209966E-2,-9.6022123E-1,9.4978833E-1,8.829345E-1,6.176635E-1,2.3922572E0,7.052498E-1,3.1810563E-2,-6.4627156E-2,3.8449045E-2,-7.327767E-1,3.5832375E-2,-2.8302565E-2,7.9683596E-1,3.0370465E-2,1.8800555E-2,1.3085959E-2,-2.0516472E-2,2.567996E-2,-6.5884055E-3],"split_indices":[6,0,7,4,7,2,4,7,0,0,0,0,0,0,7,0,0,0,0,0,0],"split_type":[0,0,0,0,0,0,0,0,0,0,0,0,0,0,0,0,0,0,0,0,0],"sum_hessian":[2.9182486E2,9.823959E1,1.9358525E2,9.904839E1,9.453686E1,8.546649E1,1.3581902E1,7.154334E1,2.2993517E1,6.670749E1,1.8759008E1,8.654423E0,4.9274783E0,7.273588E0,6.426975E1,4.5836063E1,2.0871422E1,3.9314284E0,4.722995E0,2.6008087E1,3.8261665E1],"tree_param":{"num_deleted":"0","num_feature":"8","num_nodes":"21","size_leaf_vector":"1"}},{"base_weights":[7.5145294E-3,-3.070195E-2,1.2883677E-1,4.8355395E-1,1.4164653E-3,5.982569E-1,-2.242597E-2,-2.1045154E-1,2.892508E-1,7.3205477E-1,3.0561954E-1,-3.0209592E-1,2.4038361E-1,4.684373E-1,-1.7697807E-1,4.0676937E-2,1.5276089E-2,2.3143755E-2,3.781025E-3,-2.0081561E-2,-4.6565537E-3,2.6605627E-2,-2.1469144E-2,3.4745377E-3,2.7577652E-2,-2.7830724E-2,-1.968994E-3],"categories":[],"categories_nodes":[],"categories_segments":[],"categories_sizes":[],"default_left":[0,0,0,0,0,0,0,0,0,0,0,0,0,0,0,0,0,0,0,0,0,0,0,0,0,0,0],"id":41,"left_children":[1,-1,3,5,7,9,-1,11,13,15,17,19,21,23,25,-1,-1,-1,-1,-1,-1,-1,-1,-1,-1,-1,-1],"loss_changes":[2.142988E1,0E0,1.072584E1,6.996625E0,1.0838445E1,1.8822289E0,0E0,4.2973466E0,6.419332E0,9.525356E-1,6.221738E-1,1.6910911E0,3.6818225E0,1.7222023E0,1.043226E0,0E0,0E0,0E0,0E0,0E0,0E0,0E0,0E0,0E0,0E0,0E0,0E0],"parents":[2147483647,0,0,2,2,3,3,4,4,5,5,7,7,8,8,9,9,10,10,11,11,12,12,13,13,14,14],"right_children":[2,-1,4,6,8,10,-1,12,14,16,18,20,22,24,26,-1,-1,-1,-1,-1,-1,-1,-1,-1,-1,-1,-1],"split_conditions":[-5.1478356E-1,-3.070195E-2,-8.0439955E-2,1.3342946E0,7.58073E-1,6.814374E-1,-2.242597E-2,9.4978833E-1,8.829345E-1,1.6710227E0,9.611687E-3,-6.4627156E-2,2.3922572E0,7.6473534E-1,-8.812544E-1,4.0676937E-2,1.5276089E-2,2.3143755E-2,3.781025E-3,-2.0081561E-2,-4.6565537E-3,2.6605627E-2,-2.1469144E-2,3.4745377E-3,2.7577652E-2,-2.7830724E-2,-1.968994E-3],"split_indices":[6,0,6,2,7,5,0,4,7,4,0,0,4,7,0,0,0,0,0,0,0,0,0,0,0,0,0],"split_type":[0,0,0,0,0,0,0,0,0,0,0,0,0,0,0,0,0,0,0,0,0,0,0,0,0,0,0],"sum_hessian":[2.8277908E2,4.5384E1,2.3739507E2,6.1793205E1,1.7560187E2,5.54365E1,6.356704E0,1.0110345E2,7.449842E1,3.677786E1,1.8658644E1,8.448195E1,1.6621496E1,5.396696E1,2.0531462E1,2.9920187E1,6.85767E0,1.02222E1,8.436443E0,5.6275795E1,2.8206154E1,1.1825511E1,4.795985E0,9.82883E0,4.413813E1,4.4584713E0,1.607299E1],"tree_param":{"num_deleted":"0","num_feature":"8","num_nodes":"27","size_leaf_vector":"1"}},{"base_weights":[-7.458441E-2,4.118366E-2,-4.474895E-1,-8.808171E-3,-3.0747924E-2,-3.8904494E-1,3.7900355E-1,-4.6180084E-1,-4.3713273E-3,1.8396863E-1,3.852019E-2,-2.5863675E-2,-8.288851E-3,-1.0325856E-2,1.661866E-2],"categories":[],"categories_nodes":[],"categories_segments":[],"categories_sizes":[],"default_left":[0,0,0,0,0,0,0,0,0,0,0,0,0,0,0],"id":42,"left_children":[1,-1,3,5,-1,7,9,11,-1,13,-1,-1,-1,-1,-1],"loss_changes":[8.394594E1,0E0,1.2944496E1,7.538427E0,0E0,4.736874E-1,1.6855032E0,1.807518E-1,0E0,1.1413851E0,0E0,0E0,0E0,0E0,0E0],"parents":[2147483647,0,0,2,2,3,3,5,5,6,6,7,7,9,9],"right_children":[2,-1,4,6,-1,8,10,12,-1,14,-1,-1,-1,-1,-1],"split_conditions":[-5.1478356E-1,4.118366E-2,-8.0439955E-2,-2.530735E-1,-3.0747924E-2,1.6710227E0,1.1746831E0,8.534327E-1,-4.3713273E-3,7.692445E-2,3.852019E-2,-2.5863675E-2,-8.288851E-3,-1.0325856E-2,1.661866E-2],"split_indices":[6,0,6,3,0,4,1,1,0,5,0,0,0,0,0],"split_type":[0,0,0,0,0,0,0,0,0,0,0,0,0,0,0],"sum_hessian":[2.4862317E2,7.250219E1,1.7612099E2,4.911501E1,1.2700597E2,2.49283E1,2.4186708E1,1.9388756E1,5.539546E0,1.7294415E1,6.892295E0,1.5414903E1,3.9738526E0,4.4692903E0,1.2825124E1],"tree_param":{"num_deleted":"0","num_feature":"8","num_nodes":"15","size_leaf_vector":"1"}},{"base_weights":[6.6652216E-2,-3.1743065E-2,3.87004E-1,4.3937483E-1,-3.0565748E-2,5.15451E-1,7.402065E-2,5.4264086E-1,-1.0864342E-1,-1.7066604E-1,4.7317314E-1,2.0925311E-2,3.4020655E-2,-1.7263826E-2,6.8459534E-3,5.0188764E-3,-2.303275E-2,4.3368228E-2,1.8926451E-3],"categories":[],"categories_nodes":[],"categories_segments":[],"categories_sizes":[],"default_left":[0,0,0,0,0,0,0,0,0,0,0,0,0,0,0,0,0,0,0],"id":43,"left_children":[1,-1,3,5,-1,7,9,11,13,15,17,-1,-1,-1,-1,-1,-1,-1,-1],"loss_changes":[6.616178E1,0E0,1.0820564E1,5.2604637E0,0E0,2.802822E0,3.491618E0,2.2188835E0,4.9366444E-1,1.8144867E0,2.2061162E0,0E0,0E0,0E0,0E0,0E0,0E0,0E0,0E0],"parents":[2147483647,0,0,2,2,3,3,5,5,6,6,7,7,8,8,9,9,10,10],"right_children":[2,-1,4,6,-1,8,10,12,14,16,18,-1,-1,-1,-1,-1,-1,-1,-1],"split_conditions":[-8.0439955E-2,-3.1743065E-2,9.0697443E-1,9.4978833E-1,-3.0565748E-2,-2.2276194E-1,2.3922572E0,-5.228464E-1,9.747166E-1,-7.327767E-1,7.1530473E-1,2.0925311E-2,3.4020655E-2,-1.7263826E-2,6.8459534E-3,5.0188764E-3,-2.303275E-2,4.3368228E-2,1.8926451E-3],"split_indices":[6,0,1,4,0,3,4,3,0,0,7,0,0,0,0,0,0,0,0],"split_type":[0,0,0,0,0,0,0,0,0,0,0,0,0,0,0,0,0,0,0],"sum_hessian":[2.9242123E2,9.1267555E1,2.0115367E2,1.9175447E2,9.399201E0,1.5814091E2,3.3613556E1,1.5181744E2,6.3234715E0,2.1038517E1,1.257504E1,8.236707E1,6.945037E1,3.2208786E0,3.102593E0,1.1034206E1,1.000431E1,5.9578733E0,6.6171665E0],"tree_param":{"num_deleted":"0","num_feature":"8","num_nodes":"19","size_leaf_vector":"1"}},{"base_weights":[5.537588E-3,2.1920812E-1,-1.6194011E-1,-1.655578E-1,2.827945E-1,-4.2850217E-1,-2.4573445E-2,2.4164522E-2,-2.7817184E-2,3.7062797E-1,-4.5528583E-2,-3.1368887E-1,-2.838014E-2,7.985666E-2,-2.9093165E-2,1.4261949E-1,5.201331E-1,9.034364E-2,-2.5810821E-2,-4.159523E-1,2.1908563E-2,3.6970608E-2,1.2163309E-2,1.6380457E-2,-1.6295724E-2,2.812016E-2,7.200082E-3,-2.704783E-3,2.8836304E-2,-2.7182976E-2,-3.389461E-3,-2.2532323E-3,2.1964611E-2],"categories":[],"categories_nodes":[],"categories_segments":[],"categories_sizes":[],"default_left":[0,0,0,0,0,0,0,0,0,0,0,0,0,0,0,0,0,0,0,0,0,0,0,0,0,0,0,0,0,0,0,0,0],"id":44,"left_children":[1,3,5,7,9,11,13,-1,-1,15,17,19,-1,21,-1,23,25,27,-1,29,-1,-1,31,-1,-1,-1,-1,-1,-1,-1,-1,-1,-1],"loss_changes":[9.90232E0,3.0377798E0,5.6121945E0,4.75852E0,3.0800476E0,5.6961346E-1,6.1178293E0,0E0,0E0,2.6978273E0,1.5493586E0,2.5865264E0,0E0,3.8386126E0,0E0,3.107309E0,6.3769436E-1,1.3763309E0,0E0,1.1550312E0,0E0,0E0,2.03517E0,0E0,0E0,0E0,0E0,0E0,0E0,0E0,0E0,0E0,0E0],"parents":[2147483647,0,0,1,1,2,2,3,3,4,4,5,5,6,6,9,9,10,10,11,11,13,13,15,15,16,16,17,17,19,19,22,22],"right_children":[2,4,6,8,10,12,14,-1,-1,16,18,20,-1,22,-1,24,26,28,-1,30,-1,-1,32,-1,-1,-1,-1,-1,-1,-1,-1,-1,-1],"split_conditions":[-4.95566E-1,-1.0297321E0,6.9508314E-1,-1.2524486E0,6.176635E-1,-9.8967545E-2,1.1746831E0,2.4164522E-2,-2.7817184E-2,1.0384851E-1,8.534327E-1,-1.6386014E-1,-2.838014E-2,7.052498E-1,-2.9093165E-2,-9.6698606E-1,8.829345E-1,-2.0418671E-1,-2.5810821E-2,-2.2276194E-1,2.1908563E-2,3.6970608E-2,8.534327E-1,1.6380457E-2,-1.6295724E-2,2.812016E-2,7.200082E-3,-2.704783E-3,2.8836304E-2,-2.7182976E-2,-3.389461E-3,-2.2532323E-3,2.1964611E-2],"split_indices":[3,0,7,0,2,2,1,0,0,1,1,1,0,7,0,1,7,4,0,3,0,0,1,0,0,0,0,0,0,0,0,0,0],"split_type":[0,0,0,0,0,0,0,0,0,0,0,0,0,0,0,0,0,0,0,0,0,0,0,0,0,0,0,0,0,0,0,0,0],"sum_hessian":[2.7456464E2,1.2077118E2,1.5379346E2,1.6677576E1,1.04093605E2,5.133321E1,1.0246024E2,6.0837336E0,1.05938425E1,8.226238E1,2.1831224E1,3.0298737E1,2.1034473E1,8.686074E1,1.55995E1,3.3616726E1,4.8645657E1,1.7403116E1,4.428107E0,2.7181454E1,3.1172822E0,7.023972E0,7.983677E1,2.4469664E1,9.147062E0,4.3046898E1,5.5987597E0,1.3945076E1,3.4580407E0,1.9265926E1,7.915527E0,7.0986206E1,8.850562E0],"tree_param":{"num_deleted":"0","num_feature":"8","num_nodes":"33","size_leaf_vector":"1"}},{"base_weights":[-7.0786275E-2,4.010577E-2,-4.4055137E-1,1.4111368E-2,-3.0489687E-2,-3.772204E-1,3.2890403E-1,-1.9340974E-1,-2.483524E-2,1.4298199E-1,3.7785884E-2,-1.589948E-2,-1.4410298E-3,2.5122214E-2,-3.8570014E-3],"categories":[],"categories_nodes":[],"categories_segments":[],"categories_sizes":[],"default_left":[0,0,0,0,0,0,0,0,0,0,0,0,0,0,0],"id":45,"left_children":[1,-1,3,5,-1,7,9,11,-1,13,-1,-1,-1,-1,-1],"loss_changes":[7.965361E1,0E0,1.3409912E1,6.0138383E0,0E0,3.1054068E-1,1.9600551E0,1.7142847E-1,0E0,1.6906478E0,0E0,0E0,0E0,0E0,0E0],"parents":[2147483647,0,0,2,2,3,3,5,5,6,6,7,7,9,9],"right_children":[2,-1,4,6,-1,8,10,12,-1,14,-1,-1,-1,-1,-1],"split_conditions":[-5.1478356E-1,4.010577E-2,-8.0439955E-2,-3.440082E-1,-3.0489687E-2,7.249851E-2,1.1746831E0,-3.1530723E-1,-2.483524E-2,1.0384851E-1,3.7785884E-2,-1.589948E-2,-1.4410298E-3,2.5122214E-2,-3.8570014E-3],"split_indices":[6,0,6,3,0,7,1,6,0,1,0,0,0,0,0],"split_type":[0,0,0,0,0,0,0,0,0,0,0,0,0,0,0],"sum_hessian":[2.4479964E2,7.2413635E1,1.7238602E2,4.6850304E1,1.25535706E2,2.0655996E1,2.6194305E1,9.498879E0,1.1157117E1,1.9339306E1,6.854999E0,4.5302644E0,4.9686155E0,7.0303583E0,1.23089485E1],"tree_param":{"num_deleted":"0","num_feature":"8","num_nodes":"15","size_leaf_vector":"1"}},{"base_weights":[6.922736E-2,-3.137313E-2,3.895528E-1,4.448396E-1,-3.027519E-2,5.162245E-1,7.351108E-2,4.498818E-3,5.2999866E-1,-1.5356155E-1,4.082357E-1,3.9907422E-2,2.362921E-2,5.682712E-3,-2.1564234E-2,6.424351E-3,3.22902E-2],"categories":[],"categories_nodes":[],"categories_segments":[],"categories_sizes":[],"default_left":[0,0,0,0,0,0,0,0,0,0,0,0,0,0,0,0,0],"id":46,"left_children":[1,-1,3,5,-1,7,9,-1,11,13,15,-1,-1,-1,-1,-1,-1],"loss_changes":[6.548737E1,0E0,1.1314177E1,4.969841E0,0E0,8.293152E-1,2.5365746E0,0E0,1.8742905E0,1.5458429E0,7.349055E-1,0E0,0E0,0E0,0E0,0E0,0E0],"parents":[2147483647,0,0,2,2,3,3,5,5,6,6,8,8,9,9,10,10],"right_children":[2,-1,4,6,-1,8,10,-1,12,14,16,-1,-1,-1,-1,-1,-1],"split_conditions":[-8.0439955E-2,-3.137313E-2,9.0697443E-1,9.4978833E-1,-3.027519E-2,-1.2524486E0,2.3922572E0,4.498818E-3,-8.0701554E-1,-7.327767E-1,1.196852E0,3.9907422E-2,2.362921E-2,5.682712E-3,-2.1564234E-2,6.424351E-3,3.22902E-2],"split_indices":[6,0,1,4,0,0,4,0,0,0,6,0,0,0,0,0,0],"split_type":[0,0,0,0,0,0,0,0,0,0,0,0,0,0,0,0,0],"sum_hessian":[2.9145624E2,9.139854E1,2.0005772E2,1.9014635E2,9.911363E0,1.5893321E2,3.121314E1,5.438185E0,1.5349503E2,1.8741583E1,1.2471558E1,2.4487032E1,1.29008E2,9.669047E0,9.072536E0,6.628242E0,5.843315E0],"tree_param":{"num_deleted":"0","num_feature":"8","num_nodes":"17","size_leaf_vector":"1"}},{"base_weights":[1.8065855E-2,-3.0169308E-2,1.4421809E-1,5.420245E-1,1.1579422E-3,6.6342527E-1,-2.2362042E-2,-7.1743056E-2,4.3123733E-2,3.9443932E-2,2.3682348E-1,-1.256881E-1,3.8099676E-2,-8.832612E-3,2.486316E-2,-1.2919015E-2,3.9735683E-3],"categories":[],"categories_nodes":[],"categories_segments":[],"categories_sizes":[],"default_left":[0,0,0,0,0,0,0,0,0,0,0,0,0,0,0,0,0],"id":47,"left_children":[1,-1,3,5,7,9,-1,11,-1,-1,13,15,-1,-1,-1,-1,-1],"loss_changes":[2.2276846E1,0E0,1.3416213E1,7.8151703E0,1.1147306E1,2.712597E0,0E0,7.3373127E0,0E0,0E0,1.6659467E0,4.2178254E0,0E0,0E0,0E0,0E0,0E0],"parents":[2147483647,0,0,2,2,3,3,4,4,5,5,7,7,10,10,11,11],"right_children":[2,-1,4,6,8,10,-1,12,-1,-1,14,16,-1,-1,-1,-1,-1],"split_conditions":[-5.1478356E-1,-3.0169308E-2,-8.0439955E-2,1.1746831E0,9.0697443E-1,-2.2276194E-1,-2.2362042E-2,8.035367E-2,4.3123733E-2,3.9443932E-2,1.0384851E-1,7.58073E-1,3.8099676E-2,-8.832612E-3,2.486316E-2,-1.2919015E-2,3.9735683E-3],"split_indices":[6,0,6,1,1,3,0,3,0,0,1,7,0,0,0,0,0],"split_type":[0,0,0,0,0,0,0,0,0,0,0,0,0,0,0,0,0],"sum_hessian":[2.8262796E2,4.6919094E1,2.3570888E2,6.1422886E1,1.74286E2,5.5092495E1,6.330389E0,1.6142384E2,1.2862152E1,4.1735474E1,1.3357021E1,1.5252429E2,8.899551E0,5.1378646E0,8.219157E0,9.2758415E1,5.976588E1],"tree_param":{"num_deleted":"0","num_feature":"8","num_nodes":"17","size_leaf_vector":"1"}},{"base_weights":[-8.68312E-2,3.8977586E-2,-4.4394436E-1,-6.7013884E-3,-3.0240748E-2,-1.4487335E-1,3.6845263E-2,-3.2753715E-1,1.4650321E-1,-2.0603936E-2,6.9225426E-3,1.7796053E-2,-6.7036725E-3],"categories":[],"categories_nodes":[],"categories_segments":[],"categories_sizes":[],"default_left":[0,0,0,0,0,0,0,0,0,0,0,0,0],"id":48,"left_children":[1,-1,3,5,-1,7,-1,9,11,-1,-1,-1,-1],"loss_changes":[7.302057E1,0E0,1.1690418E1,4.7871456E0,0E0,2.1870718E0,0E0,1.0698729E0,1.0003693E0,0E0,0E0,0E0,0E0],"parents":[2147483647,0,0,2,2,3,3,5,5,7,7,8,8],"right_children":[2,-1,4,6,-1,8,-1,10,12,-1,-1,-1,-1],"split_conditions":[-5.1478356E-1,3.8977586E-2,-8.0439955E-2,1.3342946E0,-3.0240748E-2,-2.2276194E-1,3.6845263E-2,2.3922572E0,7.520001E-1,-2.0603936E-2,6.9225426E-3,1.7796053E-2,-6.7036725E-3],"split_indices":[6,0,6,2,0,3,0,4,0,0,0,0,0],"split_type":[0,0,0,0,0,0,0,0,0,0,0,0,0],"sum_hessian":[2.339994E2,6.7872574E1,1.6612683E2,4.5129383E1,1.20997444E2,3.8850163E1,6.2792206E0,2.4014551E1,1.4835612E1,2.0606344E1,3.408207E0,8.545366E0,6.290246E0],"tree_param":{"num_deleted":"0","num_feature":"8","num_nodes":"13","size_leaf_vector":"1"}},{"base_weights":[7.381687E-2,2.3541722E-1,-2.8892135E-2,3.1409863E-1,-3.015442E-2,4.047666E-1,-7.455984E-2,2.577731E-1,5.8990484E-1,8.2016036E-2,-3.3857763E-1,2.052218E-2,1.2849879E-3,2.5517104E-2,4.019938E-2,-1.3073521E-2,1.1769855E-2,-6.6974475E-3,-2.8409848E-2],"categories":[],"categories_nodes":[],"categories_segments":[],"categories_sizes":[],"default_left":[0,0,0,0,0,0,0,0,0,0,0,0,0,0,0,0,0,0,0],"id":49,"left_children":[1,3,-1,5,-1,7,9,11,13,15,17,-1,-1,-1,-1,-1,-1,-1,-1],"loss_changes":[3.0593485E1,1.5522444E1,0E0,7.591526E0,0E0,4.487276E0,1.7502499E0,3.4478326E0,7.4850464E-1,1.4462986E0,5.9199584E-1,0E0,0E0,0E0,0E0,0E0,0E0,0E0,0E0],"parents":[2147483647,0,0,1,1,3,3,5,5,6,6,7,7,8,8,9,9,10,10],"right_children":[2,4,-1,6,-1,8,10,12,14,16,18,-1,-1,-1,-1,-1,-1,-1,-1],"split_conditions":[-2.2276194E-1,9.0697443E-1,-2.8892135E-2,9.4978833E-1,-3.015442E-2,-5.228464E-1,-7.327767E-1,-1.1108717E0,8.534895E-1,-5.228464E-1,-5.258776E-1,2.052218E-2,1.2849879E-3,2.5517104E-2,4.019938E-2,-1.3073521E-2,1.1769855E-2,-6.6974475E-3,-2.8409848E-2],"split_indices":[3,1,0,4,0,3,0,7,7,3,3,0,0,0,0,0,0,0,0],"split_type":[0,0,0,0,0,0,0,0,0,0,0,0,0,0,0,0,0,0,0],"sum_hessian":[2.8854657E2,2.3184517E2,5.670141E1,2.12637E2,1.9208183E1,1.7259023E2,4.004677E1,9.784057E1,7.474965E1,2.5333385E1,1.4713384E1,5.829286E1,3.9547714E1,5.7303913E1,1.7445734E1,7.401515E0,1.793187E1,8.847584E0,5.8658E0],"tree_param":{"num_deleted":"0","num_feature":"8","num_nodes":"19","size_leaf_vector":"1"}},{"base_weights":[-2.012815E-3,-2.9830087E-2,1.0920134E-1,4.621119E-1,-1.2332942E-2,6.158766E-1,-2.412376E-2,-8.312662E-2,4.1192867E-2,6.857191E-1,2.1956699E-1,-1.7205344E-1,2.8988987E-1,1.3121748E-2,3.7610326E-2,2.4679923E-2,-4.240963E-3,-2.3329504E-2,-5.7184245E-3,2.4822682E-2,-1.8089534E-3],"categories":[],"categories_nodes":[],"categories_segments":[],"categories_sizes":[],"default_left":[0,0,0,0,0,0,0,0,0,0,0,0,0,0,0,0,0,0,0,0,0],"id":50,"left_children":[1,-1,3,5,7,9,-1,11,-1,13,15,17,19,-1,-1,-1,-1,-1,-1,-1,-1],"loss_changes":[1.8614182E1,0E0,1.0189627E1,9.139984E0,1.0448568E1,1.2206669E0,0E0,5.4726524E0,0E0,9.454098E-1,8.833296E-1,2.150614E0,2.1987715E0,0E0,0E0,0E0,0E0,0E0,0E0,0E0,0E0],"parents":[2147483647,0,0,2,2,3,3,4,4,5,5,7,7,9,9,10,10,11,11,12,12],"right_children":[2,-1,4,6,8,10,-1,12,-1,14,16,18,20,-1,-1,-1,-1,-1,-1,-1,-1],"split_conditions":[-5.1478356E-1,-2.9830087E-2,-8.0439955E-2,1.1746831E0,9.0697443E-1,1.4068528E0,-2.412376E-2,9.4978833E-1,4.1192867E-2,-9.6698606E-1,-6.4627156E-2,-1.0297321E0,2.3922572E0,1.3121748E-2,3.7610326E-2,2.4679923E-2,-4.240963E-3,-2.3329504E-2,-5.7184245E-3,2.4822682E-2,-1.8089534E-3],"split_indices":[6,0,6,1,1,5,0,4,0,1,0,0,4,0,0,0,0,0,0,0,0],"split_type":[0,0,0,0,0,0,0,0,0,0,0,0,0,0,0,0,0,0,0,0,0],"sum_hessian":[2.7877032E2,4.338012E1,2.3539021E2,5.9790733E1,1.7559949E2,5.1810596E1,7.9801354E0,1.628338E2,1.2765682E1,4.321257E1,8.598027E0,1.3213884E2,3.0694956E1,6.7419515E0,3.647062E1,4.370386E0,4.2276406E0,2.0196148E1,1.11942696E2,1.86588E1,1.2036156E1],"tree_param":{"num_deleted":"0","num_feature":"8","num_nodes":"21","size_leaf_vector":"1"}},{"base_weights":[-8.794207E-2,-3.7240347E-1,4.776647E-1,-4.774968E-1,5.582586E-1,3.0150348E-1,3.7248027E-2,-3.0189794E-1,-2.6547974E-2,3.6172953E-2,-2.0400286E-3,4.4700179E-1,-3.2757346E-2,-4.7306553E-1,9.251599E-2,5.3933775E-1,1.0477316E-1,-1.2562001E-2,8.433006E-3,-1.4005368E-2,-2.796634E-2,-1.4579973E-2,2.486739E-2,1.0900588E-2,3.615688E-2,-7.7680857E-3,1.4501966E-2],"categories":[],"categories_nodes":[],"categories_segments":[],"categories_sizes":[],"default_left":[0,0,0,0,0,0,0,0,0,0,0,0,0,0,0,0,0,0,0,0,0,0,0,0,0,0,0],"id":51,"left_children":[1,3,5,7,9,11,-1,13,-1,-1,-1,15,17,19,21,23,25,-1,-1,-1,-1,-1,-1,-1,-1,-1,-1],"loss_changes":[3.8071716E1,1.5656258E1,3.3979664E0,1.0903854E0,1.7146978E0,2.4691548E0,0E0,2.5067341E0,0E0,0E0,0E0,9.802184E-1,7.446447E-1,1.8197584E-1,1.9585551E0,1.3411207E0,4.8626623E-1,0E0,0E0,0E0,0E0,0E0,0E0,0E0,0E0,0E0,0E0],"parents":[2147483647,0,0,1,1,2,2,3,3,4,4,5,5,7,7,11,11,12,12,13,13,14,14,15,15,16,16],"right_children":[2,4,6,8,10,12,-1,14,-1,-1,-1,16,18,20,22,24,26,-1,-1,-1,-1,-1,-1,-1,-1,-1,-1],"split_conditions":[-2.2276194E-1,1.1746831E0,1.1746831E0,-8.812544E-1,4.5504472E-1,8.7678456E-1,3.7248027E-2,-9.554932E-1,-2.6547974E-2,3.6172953E-2,-2.0400286E-3,9.0047777E-1,1.648658E0,-1.1039709E0,-8.155986E-1,3.8346928E-1,2.202163E0,-1.2562001E-2,8.433006E-3,-1.4005368E-2,-2.796634E-2,-1.4579973E-2,2.486739E-2,1.0900588E-2,3.615688E-2,-7.7680857E-3,1.4501966E-2],"split_indices":[3,1,1,0,0,7,0,0,0,0,0,0,5,0,2,3,3,0,0,0,0,0,0,0,0,0,0],"split_type":[0,0,0,0,0,0,0,0,0,0,0,0,0,0,0,0,0,0,0,0,0,0,0,0,0,0,0],"sum_hessian":[2.3458693E2,1.5643117E2,7.815576E1,1.410929E2,1.533828E1,4.86169E1,2.9538858E1,3.4918842E1,1.0617405E2,1.19908695E1,3.3474104E0,3.384612E1,1.4770782E1,2.438875E1,1.0530091E1,2.5970827E1,7.875292E0,7.204739E0,7.5660434E0,9.204848E0,1.5183902E1,5.4200687E0,5.110023E0,1.0443431E1,1.5527396E1,3.1183794E0,4.756912E0],"tree_param":{"num_deleted":"0","num_feature":"8","num_nodes":"27","size_leaf_vector":"1"}},{"base_weights":[4.643702E-2,-3.0794105E-2,3.5758966E-1,4.1630545E-1,-2.9715974E-2,4.5375487E-1,-4.0338314E-1,3.2144597E-1,5.8727235E-1,-2.848494E-2,-5.5238786E-3,3.276324E-2,1.1935237E-2,3.1535026E-2,1.0682617E-2],"categories":[],"categories_nodes":[],"categories_segments":[],"categories_sizes":[],"default_left":[0,0,0,0,0,0,0,0,0,0,0,0,0,0,0],"id":52,"left_children":[1,-1,3,5,-1,7,9,11,13,-1,-1,-1,-1,-1,-1],"loss_changes":[5.8410736E1,0E0,1.1013046E1,5.7875195E0,0E0,2.8123245E0,2.7739394E-1,2.2537832E0,1.1686058E0,0E0,0E0,0E0,0E0,0E0,0E0],"parents":[2147483647,0,0,2,2,3,3,5,5,6,6,7,7,8,8],"right_children":[2,-1,4,6,-1,8,10,12,14,-1,-1,-1,-1,-1,-1],"split_conditions":[-8.0439955E-2,-3.0794105E-2,8.534327E-1,8.035367E-2,-2.9715974E-2,-4.95566E-1,9.747166E-1,-1.0297321E0,9.232425E-1,-2.848494E-2,-5.5238786E-3,3.276324E-2,1.1935237E-2,3.1535026E-2,1.0682617E-2],"split_indices":[6,0,1,3,0,3,0,0,5,0,0,0,0,0,0],"split_type":[0,0,0,0,0,0,0,0,0,0,0,0,0,0,0],"sum_hessian":[2.8149063E2,8.955763E1,1.91933E2,1.814109E2,1.0522099E1,1.7402843E2,7.382474E0,8.949752E1,8.453091E1,3.888266E0,3.4942079E0,1.6162405E1,7.333511E1,7.48723E1,9.6586075E0],"tree_param":{"num_deleted":"0","num_feature":"8","num_nodes":"15","size_leaf_vector":"1"}},{"base_weights":[7.821976E-3,-2.9546333E-2,1.2858932E-1,3.0381823E-1,-1.11531794E-1,-2.8701117E-2,3.4201652E-1,-1.8136093E-1,3.7324864E-2,3.923204E-1,-3.804636E-1,-2.263581E-1,2.119944E-2,3.0338237E-2,1.1471205E-2,-2.6706625E-2,-5.294846E-3,-1.3331135E-2,6.466066E-3],"categories":[],"categories_nodes":[],"categories_segments":[],"categories_sizes":[],"default_left":[0,0,0,0,0,0,0,0,0,0,0,0,0,0,0,0,0,0,0],"id":53,"left_children":[1,-1,3,5,7,-1,9,11,-1,13,15,17,-1,-1,-1,-1,-1,-1,-1],"loss_changes":[1.9701462E1,0E0,9.61903E0,4.597435E0,5.8550005E0,0E0,4.772504E0,2.5294049E0,0E0,3.9522724E0,2.4468315E-1,1.2603078E0,0E0,0E0,0E0,0E0,0E0,0E0,0E0],"parents":[2147483647,0,0,2,2,3,3,4,4,6,6,7,7,9,9,10,10,11,11],"right_children":[2,-1,4,6,8,-1,10,12,-1,14,16,18,-1,-1,-1,-1,-1,-1,-1],"split_conditions":[-5.1478356E-1,-2.9546333E-2,1.196852E0,-1.5024034E0,9.0697443E-1,-2.8701117E-2,1.1746831E0,-2.2276194E-1,3.7324864E-2,-8.0439955E-2,1.4943885E0,9.232425E-1,2.119944E-2,3.0338237E-2,1.1471205E-2,-2.6706625E-2,-5.294846E-3,-1.3331135E-2,6.466066E-3],"split_indices":[6,0,6,1,1,0,1,3,0,6,0,5,0,0,0,0,0,0,0],"split_type":[0,0,0,0,0,0,0,0,0,0,0,0,0,0,0,0,0,0,0],"sum_hessian":[2.710496E2,4.470197E1,2.2634763E2,1.3094292E2,9.540469E1,4.766142E0,1.2617678E2,8.9061745E1,6.342952E0,1.1852002E2,7.6567593E0,8.363612E1,5.425619E0,4.9723248E1,6.879677E1,4.069548E0,3.587211E0,7.560843E1,8.027696E0],"tree_param":{"num_deleted":"0","num_feature":"8","num_nodes":"19","size_leaf_vector":"1"}},{"base_weights":[-7.6922685E-2,3.741592E-2,-4.1642457E-1,-0E0,-2.9831273E-2,-1.8556897E-1,3.4400668E-2,-3.9889908E-1,1.6910155E-1,-2.5892442E-2,-2.0551817E-3,2.1828433E-2,-1.45797655E-2],"categories":[],"categories_nodes":[],"categories_segments":[],"categories_sizes":[],"default_left":[0,0,0,0,0,0,0,0,0,0,0,0,0],"id":54,"left_children":[1,-1,3,5,-1,7,-1,9,11,-1,-1,-1,-1],"loss_changes":[6.487286E1,0E0,1.2277342E1,6.5655336E0,0E0,3.1737342E0,0E0,1.0259442E0,2.0925798E0,0E0,0E0,0E0,0E0],"parents":[2147483647,0,0,2,2,3,3,5,5,7,7,8,8],"right_children":[2,-1,4,6,-1,8,-1,10,12,-1,-1,-1,-1],"split_conditions":[-5.1478356E-1,3.741592E-2,-8.0439955E-2,1.1746831E0,-2.9831273E-2,-2.2276194E-1,3.4400668E-2,1.6710227E0,8.534895E-1,-2.5892442E-2,-2.0551817E-3,2.1828433E-2,-1.45797655E-2],"split_indices":[6,0,6,1,0,3,0,4,7,0,0,0,0],"split_type":[0,0,0,0,0,0,0,0,0,0,0,0,0],"sum_hessian":[2.2955368E2,6.647397E1,1.6307971E2,4.965649E1,1.13423225E2,3.9751026E1,9.905465E0,2.4919495E1,1.4831531E1,1.815651E1,6.762985E0,9.554122E0,5.2774086E0],"tree_param":{"num_deleted":"0","num_feature":"8","num_nodes":"13","size_leaf_vector":"1"}},{"base_weights":[5.9097987E-2,2.0859402E-1,-5.3280497E-1,2.744964E-1,-2.9357538E-2,-1.1701952E-2,-5.553981E-1,3.594556E-1,-9.525894E-2,-3.0249491E-2,-1.9192502E-2,2.080955E-1,5.3901035E-1,-3.6643127E-1,1.5166405E-1,2.4241982E-2,5.701303E-3,3.559159E-2,1.9345952E-2,-2.741743E-2,-0E0,1.4913238E-2,-1.3856291E-2],"categories":[],"categories_nodes":[],"categories_segments":[],"categories_sizes":[],"default_left":[0,0,0,0,0,0,0,0,0,0,0,0,0,0,0,0,0,0,0,0,0,0,0],"id":55,"left_children":[1,3,5,7,-1,-1,9,11,13,-1,-1,15,17,19,21,-1,-1,-1,-1,-1,-1,-1,-1],"loss_changes":[2.530212E1,1.2108961E1,1.8003845E-1,6.7127113E0,0E0,0E0,1.1581421E-1,4.5044575E0,2.7644231E0,0E0,0E0,2.3734484E0,1.6655521E0,1.2971148E0,1.4375935E0,0E0,0E0,0E0,0E0,0E0,0E0,0E0,0E0],"parents":[2147483647,0,0,1,1,2,2,3,3,6,6,7,7,8,8,11,11,12,12,13,13,14,14],"right_children":[2,4,6,8,-1,-1,10,12,14,-1,-1,16,18,20,22,-1,-1,-1,-1,-1,-1,-1,-1],"split_conditions":[-2.2276194E-1,8.534327E-1,8.035367E-2,9.4978833E-1,-2.9357538E-2,-1.1701952E-2,1.648658E0,-5.228464E-1,-3.7431976E-1,-3.0249491E-2,-1.9192502E-2,-6.168123E-1,-9.6022123E-1,2.3922572E0,-8.812544E-1,2.4241982E-2,5.701303E-3,3.559159E-2,1.9345952E-2,-2.741743E-2,-0E0,1.4913238E-2,-1.3856291E-2],"split_indices":[3,1,3,4,0,0,5,3,3,0,0,3,7,4,0,0,0,0,0,0,0,0,0],"split_type":[0,0,0,0,0,0,0,0,0,0,0,0,0,0,0,0,0,0,0,0,0,0,0],"sum_hessian":[2.8405157E2,2.2742717E2,5.66244E1,2.1075359E2,1.6673578E1,5.0907397E0,5.153366E1,1.716188E2,3.913478E1,3.7564747E1,1.3968915E1,9.459419E1,7.702461E1,1.861389E1,2.0520893E1,2.267353E1,7.192066E1,3.402462E1,4.299999E1,1.207246E1,6.541429E0,1.5693126E1,4.827768E0],"tree_param":{"num_deleted":"0","num_feature":"8","num_nodes":"23","size_leaf_vector":"1"}},{"base_weights":[4.4360373E-2,-2.9245326E-2,1.5311325E-1,-5.5028703E-2,2.9622617E-1,4.7127405E-1,-1.6733344E-1,3.4741163E-1,-2.4552483E-2,2.7915454E-2,2.9243056E-3,-2.900232E-1,5.3685963E-2,5.982609E-1,2.2159496E-1,1.28455935E-2,-1.7037226E-2,2.3317177E-2,-7.2043124E-3,1.5008288E-2,3.5590045E-2,1.3310621E-2,-2.5330812E-2],"categories":[],"categories_nodes":[],"categories_segments":[],"categories_sizes":[],"default_left":[0,0,0,0,0,0,0,0,0,0,0,0,0,0,0,0,0,0,0,0,0,0,0],"id":56,"left_children":[1,-1,3,5,7,9,11,13,-1,-1,-1,15,17,19,21,-1,-1,-1,-1,-1,-1,-1,-1],"loss_changes":[1.850498E1,0E0,6.918662E0,5.642182E0,5.687805E0,5.0738764E-1,2.1784456E0,3.8755884E0,0E0,0E0,0E0,1.5156288E0,2.4427688E0,1.1213665E0,2.9752402E0,0E0,0E0,0E0,0E0,0E0,0E0,0E0,0E0],"parents":[2147483647,0,0,2,2,3,3,4,4,5,5,6,6,7,7,11,11,12,12,13,13,14,14],"right_children":[2,-1,4,6,8,10,12,14,-1,-1,-1,16,18,20,22,-1,-1,-1,-1,-1,-1,-1,-1],"split_conditions":[-5.1478356E-1,-2.9245326E-2,-9.6022123E-1,-8.0439955E-2,9.1312486E-1,-3.440082E-1,-2.8734368E-1,-5.258776E-1,-2.4552483E-2,2.7915454E-2,2.9243056E-3,-1.1782098E0,1.5808937E-1,-6.774354E-1,1.1746831E0,1.28455935E-2,-1.7037226E-2,2.3317177E-2,-7.2043124E-3,1.5008288E-2,3.5590045E-2,1.3310621E-2,-2.5330812E-2],"split_indices":[6,0,7,6,7,3,0,3,0,0,0,0,0,3,1,0,0,0,0,0,0,0,0],"split_type":[0,0,0,0,0,0,0,0,0,0,0,0,0,0,0,0,0,0,0,0,0,0,0],"sum_hessian":[2.6872623E2,3.8818195E1,2.2990802E2,9.363825E1,1.3626978E2,1.5748405E1,7.788985E1,1.285948E2,7.6749754E0,1.2514892E1,3.2335134E0,5.0176617E1,2.7713228E1,4.1434402E1,8.71604E1,3.7460191E0,4.6430595E1,8.702615E0,1.9010614E1,1.2676682E1,2.875772E1,8.285559E1,4.304804E0],"tree_param":{"num_deleted":"0","num_feature":"8","num_nodes":"23","size_leaf_vector":"1"}},{"base_weights":[-1.0950079E-1,-3.7253928E-1,4.5631987E-1,-4.616519E-1,5.284336E-1,3.1890506E-1,3.5053506E-2,-2.7435953E-2,-1.6513754E-1,4.8400196E-3,3.4631018E-2,-1.0868257E-2,4.193748E-1,-4.733798E-2,-2.3005735E-2,-1.1218764E-2,1.0030755E-1,4.9602252E-1,-1.1025229E-2,-7.6765805E-3,1.3645365E-2,1.67246E-2,-9.420807E-3,3.45774E-2,2.036386E-2],"categories":[],"categories_nodes":[],"categories_segments":[],"categories_sizes":[],"default_left":[0,0,0,0,0,0,0,0,0,0,0,0,0,0,0,0,0,0,0,0,0,0,0,0,0],"id":57,"left_children":[1,3,5,7,9,11,-1,-1,13,-1,-1,15,17,19,-1,-1,21,23,-1,-1,-1,-1,-1,-1,-1],"loss_changes":[3.325248E1,1.2477097E1,2.058527E0,3.4358711E0,8.522949E-1,1.6190066E0,0E0,0E0,1.0854349E0,0E0,0E0,3.157946E-1,1.9349914E0,8.8598126E-1,0E0,0E0,6.296629E-1,1.8432426E-1,0E0,0E0,0E0,0E0,0E0,0E0,0E0],"parents":[2147483647,0,0,1,1,2,2,3,3,4,4,5,5,8,8,11,11,12,12,13,13,16,16,17,17],"right_children":[2,4,6,8,10,12,-1,-1,14,-1,-1,16,18,20,-1,-1,22,24,-1,-1,-1,-1,-1,-1,-1],"split_conditions":[-2.2276194E-1,1.1746831E0,1.1746831E0,9.4978833E-1,6.176635E-1,3.8346928E-1,3.5053506E-2,-2.7435953E-2,8.534895E-1,4.8400196E-3,3.4631018E-2,6.814374E-1,8.985888E-1,-3.440082E-1,-2.3005735E-2,-1.1218764E-2,2.3922572E0,8.082971E-1,-1.1025229E-2,-7.6765805E-3,1.3645365E-2,1.67246E-2,-9.420807E-3,3.45774E-2,2.036386E-2],"split_indices":[3,1,1,4,2,3,0,0,7,0,0,5,7,3,0,0,4,7,0,0,0,0,0,0,0],"split_type":[0,0,0,0,0,0,0,0,0,0,0,0,0,0,0,0,0,0,0,0,0,0,0,0,0],"sum_hessian":[2.2133606E2,1.5144888E2,6.988718E1,1.3836246E2,1.3086428E1,4.649446E1,2.3392714E1,1.06038086E2,3.2324368E1,4.2120185E0,8.87441E0,1.0833151E1,3.566131E1,2.4171095E1,8.153274E0,3.668764E0,7.1643867E0,3.218691E1,3.4744005E0,1.877735E1,5.393745E0,4.0595274E0,3.1048594E0,7.576001E0,2.4610909E1],"tree_param":{"num_deleted":"0","num_feature":"8","num_nodes":"25","size_leaf_vector":"1"}},{"base_weights":[2.7587842E-2,-3.0364696E-2,3.104558E-1,3.6500177E-1,-2.7476287E-2,3.9816454E-1,-2.7301386E-2,4.720645E-1,6.0932543E-2,1.6802981E-2,3.0542681E-2,1.4844007E-2,-1.1146429E-2],"categories":[],"categories_nodes":[],"categories_segments":[],"categories_sizes":[],"default_left":[0,0,0,0,0,0,0,0,0,0,0,0,0],"id":58,"left_children":[1,-1,3,5,-1,7,-1,9,11,-1,-1,-1,-1],"loss_changes":[4.844285E1,0E0,8.942905E0,5.530073E0,0E0,4.1751347E0,0E0,2.337532E0,2.223304E0,0E0,0E0,0E0,0E0],"parents":[2147483647,0,0,2,2,3,3,5,5,7,7,8,8],"right_children":[2,-1,4,6,-1,8,-1,10,12,-1,-1,-1,-1],"split_conditions":[-8.0439955E-2,-3.0364696E-2,-2.2276194E-1,9.0697443E-1,-2.7476287E-2,-5.9939824E-2,-2.7301386E-2,-5.228464E-1,-7.528191E-1,1.6802981E-2,3.0542681E-2,1.4844007E-2,-1.1146429E-2],"split_indices":[6,0,3,1,0,4,0,3,1,0,0,0,0],"split_type":[0,0,0,0,0,0,0,0,0,0,0,0,0],"sum_hessian":[2.6786026E2,8.2097176E1,1.8576308E2,1.7533405E2,1.0429042E1,1.6982489E2,5.5091505E0,1.387281E2,3.1096788E1,7.215879E1,6.656931E1,1.7148907E1,1.3947884E1],"tree_param":{"num_deleted":"0","num_feature":"8","num_nodes":"13","size_leaf_vector":"1"}},{"base_weights":[-7.78761E-3,-2.9016888E-2,9.4513774E-2,2.6129293E-1,-1.3411275E-1,4.2786112E-1,1.3094242E-1,-2.1443051E-1,5.3148335E-1,6.002895E-1,-1.3390356E-1,6.1536442E-2,3.4362063E-2,-2.7849615E-1,1.7235543E-1,3.355069E-2,1.0591433E-2,3.2976147E-2,1.7211212E-2,-2.676853E-2,1.9963777E-3,1.2086008E-2,-8.031404E-3,-3.122803E-2,-9.330141E-3,2.878053E-2,-2.1135343E-2],"categories":[],"categories_nodes":[],"categories_segments":[],"categories_sizes":[],"default_left":[0,0,0,0,0,0,0,0,0,0,0,0,0,0,0,0,0,0,0,0,0,0,0,0,0,0,0],"id":59,"left_children":[1,-1,3,5,7,9,11,13,15,17,19,21,-1,23,25,-1,-1,-1,-1,-1,-1,-1,-1,-1,-1,-1,-1],"loss_changes":[1.6089087E1,0E0,8.903851E0,2.81678E0,5.341217E0,5.7876425E0,2.873118E0,2.2547717E0,2.4886203E-1,3.556404E-1,1.0762789E0,2.8536649E0,0E0,2.2394905E0,3.3756576E0,0E0,0E0,0E0,0E0,0E0,0E0,0E0,0E0,0E0,0E0,0E0,0E0],"parents":[2147483647,0,0,2,2,3,3,4,4,5,5,6,6,7,7,8,8,9,9,10,10,11,11,13,13,14,14],"right_children":[2,-1,4,6,8,10,12,14,16,18,20,22,-1,24,26,-1,-1,-1,-1,-1,-1,-1,-1,-1,-1,-1,-1],"split_conditions":[-5.1478356E-1,-2.9016888E-2,1.196852E0,-8.0439955E-2,-2.2276194E-1,3.8346928E-1,8.035367E-2,9.4978833E-1,6.814374E-1,-2.530735E-1,9.747166E-1,-4.95566E-1,3.4362063E-2,-8.0701554E-1,2.3922572E0,3.355069E-2,1.0591433E-2,3.2976147E-2,1.7211212E-2,-2.676853E-2,1.9963777E-3,1.2086008E-2,-8.031404E-3,-3.122803E-2,-9.330141E-3,2.878053E-2,-2.1135343E-2],"split_indices":[6,0,6,6,3,3,3,4,5,3,0,3,0,0,4,0,0,0,0,0,0,0,0,0,0,0,0],"split_type":[0,0,0,0,0,0,0,0,0,0,0,0,0,0,0,0,0,0,0,0,0,0,0,0,0,0,0],"sum_hessian":[2.7192E2,4.0660435E1,2.3125958E2,1.338863E2,9.7373276E1,5.7438755E1,7.644755E1,8.762733E1,9.74595E0,4.4032745E1,1.3406007E1,6.911489E1,7.3326616E0,7.563755E1,1.19897785E1,5.8015366E0,3.9444132E0,3.416379E1,9.868956E0,3.5961206E0,9.809886E0,3.8363087E1,3.0751802E1,1.4425864E1,6.1211685E1,7.266343E0,4.723436E0],"tree_param":{"num_deleted":"0","num_feature":"8","num_nodes":"27",